-0.00736928577914218 0.00459631003302578 -0.00751926949579501 -0.00904925878628889
-0.0110511407581966 0.0323353926474013 0.0139987861621884 -0.0197886087768085
-0.00827812211037898 0.0298426656191434 0.00800296751348037 0.00937779898426991
-0.0330132230790778 -0.00308667390751216 0.0124227638325517 -0.0104157337757878
0.00153864242491992 0.0182727888010795 -0.0272538581442814 -0.0169012770116681
-0.0029147723854076 -0.00918728959707629 0.00690663817990733 -0.0166552864149319
-0.00817072474522164 0.0438327297714023 -0.00957293273176796 -0.0119960707758398
-0.0299886869465633 -0.00214348741655769 -0.02828050427322 0.0179875431996596
0.00359488452549046 0.0171890996790453 0.0480138309533332 -0.00800734036014346
0.000722351385791883 -0.00954738166536028 -0.00759360026260837 0.0106478098649911
0.0207139807951345 0.0114478863153152 -0.0386127162521926 -0.0214075326553732
-0.0317510239806723 -0.00298640492182107 0.00180543007724491 -0.0141478436399495
-0.00253373775763938 -0.00223642008320452 0.0270829347021579 -0.0338726889646242
0.0167621175681017 0.0163396337900579 0.0340241491115485 -0.0234282965565545
0.00366052637130948 0.000860732878155266 0.0269814236082847 -0.00443147132335967
0.0123565740484174 0.0107528759041015 0.021111626438545 0.0661813488980845
-0.0311795705300467 0.0307294860623249 -0.0131988516284988 0.0567230494628412
-0.0176326837194228 0.0168789871255898 0.00968237106922382 -0.0119849243680526
0.0122248299855179 0.0390538440777607 0.00615954550724264 -0.0141886143216876
-0.0122406051489508 -0.0182305672506441 0.00463153803214824 0.0156302584022273
-0.0238959355068663 0.00252528894124969 -0.0132782154382478 -0.0360962598511697
0.026075414185045 0.0055742768642967 0.00871423500637305 -0.000447385532624713
0.00794637589094966 0.00609287409233094 0.023448631383021 -0.0239057069215913
-0.0427755590139482 0.0196483085575919 -0.000157256953614618 -0.00713305917004126
0.00810918566536526 0.0163313180530073 -0.018336308241018 -0.0259890890732832
-0.0158414306382555 -0.00679208168385195 0.0263357901931958 -0.0265914041000914
0.00902367934477793 -0.00926006716520714 0.00938566925925324 0.0160559251997037
0.0145642791386207 0.0178489470884255 0.0066188818813347 -0.0193129590704968
0.0276513528102282 -0.0133394785901807 0.00137140328644455 0.0018822254819623
0.00378262973242223 0.00250834626605939 0.0047320722101999 -0.0235285685867847
-0.00838453516151524 -0.0106358856289773 0.0191933800942166 0.0198812562401224
-0.0180616118891847 -0.0142840198999961 0.0302612770024891 -0.0201105730449692
0.00483161703069484 0.0287978044993005 -0.0301721231980107 -0.00362997704665462
-0.0221983925463459 -0.00702064402740616 -0.00805281060371308 0.0107901222336368
-0.0182453906561616 0.000945041695178535 0.0300973928438892 -0.0223640415801071
-0.0116359716458512 -0.0113347024523204 -0.043498532268766 0.00880113234836464
-0.0117960053699583 0.0045395754620044 0.00713935459186692 0.0126096634973012
0.00590620918226921 0.0529028932156734 -0.0158725573973986 -0.0100918827615397
-0.0354302605428364 -0.00449446803314989 -0.0171094857573207 -0.0215227744363239
-0.0338930446280208 -0.036219207177836 -0.0421644126057079 -0.00107069304631505
0.00306782547814457 0.00955383798168799 -0.00604600540945974 0.0310469789170688
-0.00191338108820244 -0.00182730055822508 0.00161859603546529 -0.0264968251616041
-0.0251535858484393 0.00718715543222162 -0.0181533246640901 -0.00862487145369265
0.00891716735572981 0.0406513814619929 0.00788833215696204 0.00210579160741472
0.0145895376148837 -0.0192253048891607 -0.0047196980902388 0.0393238391988083
-0.00723780713392878 -0.00841724313345572 0.0126857898439726 -0.0288840679345939
-0.0129363941903239 0.00949183953062804 -0.0325015874353013 0.0019444870404919
0.0126950092518077 0.0268228749055774 -0.0297132740460695 0.0308761562107538
0.00214229689591479 -0.00595478620502546 -0.0235362577336111 0.0267823210176845
-0.0148355934660396 0.0277392266062872 0.00670820859703781 -0.0167256779910223
-0.0412930254230726 0.00478574681312991 -0.00379573179013915 -0.015125144687677
0.00738478525081795 0.018528164565013 -0.0247824947720261 -0.0181123080728522
-0.0182415622148411 0.0130051243170261 0.00594588994769893 -0.0254328982580639
0.00198420682335308 -0.00229910926457466 0.0537134288306662 0.0171456873458282
-0.00480149530763276 0.04036424450365 -0.00288651610381837 -0.00100327834868905
-0.00799661394384638 -0.00641031186375776 0.0343968277961953 0.0158046753966252
-0.042127068005345 0.0169533409748917 0.00848620173325805 -0.0413411411081511
-0.0275304886088039 -0.0166008108662953 -0.0299005183188397 -0.0139620559520914
0.000299759556427558 -0.00515824986393026 -0.0266868031155682 -0.0245075093321086
-0.0280970357124002 -0.0336051013905664 0.0233380654929163 -0.0142018001583584
-0.0298664643618506 -0.0126147858649709 0.0201739577520016 0.00881931260852542
0.0161919832299699 0.0223435048990903 -0.0138904686959197 0.0331492320239192
-0.0141641742622268 -0.0211847896447361 -0.018407203338413 -0.0190032998026711
-0.0261011769112696 -0.00486764797286655 0.0274911829587751 0.00522927323153605
0.0145911168300585 0.0113318599624474 -0.0026554512698411 -0.0266376970927162
-0.0203436274363414 -0.0181652882763888 0.0282941157600319 0.0406186424522552
-0.00431058155647559 -0.0058167613711059 -0.0297102436652425 -0.0225588800694957
0.0322850649842842 -0.00268888901475278 0.00199310188186686 -0.0095224088242449
-0.00134621095786465 0.0115618570224178 -0.000940310735451052 -0.0270636573327815
0.0339357204151685 -0.00532576792542782 0.00415984101172105 0.00863238933425188
-0.0246357063207154 0.00305115994376883 -0.0206002864824317 0.00993666584009892
-0.00542732151778086 -0.0134020342321227 0.0361301460237273 0.0223525903628728
-0.0180035239516874 -0.0165681898520736 -0.00842093944340442 0.0337441828144033
0.0176744772345987 0.0142776643143811 0.0124319928312047 -0.00212282652937025
0.00170081670118791 -0.00447702176045131 -0.02544203640096 0.004884546556693
-0.00758100645504716 0.0364776429666208 -0.00925347910663766 0.000352502022519989
-0.00890722999026443 0.00645062396685482 0.00566762725658177 -0.00168879383491657
-0.00656640157003298 0.00902088559859929 0.0133250464437672 0.0206190380373997
-0.0186204270753161 0.0416903755586245 0.00373530276198954 -0.0218016760908719
0.0216765161715214 -0.00573569205395952 0.00276057118760657 -0.0199212901267772
6.32745397943e-05 -0.0273773670708188 -0.0232944770323273 -0.000100359638546196
0.022129580281101 0.0246427000937637 -0.0191224909406986 -0.0174590347392472
0.00107764207497449 -0.0127989129122217 -0.0101951025990208 0.00636461125345115
0.0148258275592982 0.0259496746790215 -0.0125525701772174 -0.0310431512590842
0.0049254657771456 -0.00302829918640205 0.00672110306206446 0.00546292662081398
-0.0253976922765826 -0.0150486269197831 -0.0209296097782913 0.0505279963437802
-0.0435378779297602 -0.0036187989700545 -0.0192338047846273 0.0188541892495268
0.0253526908642893 -0.010754548133891 -0.0264156866826013 -0.0167036724257973
0.00813528045051466 -0.0172022297166106 -0.0343683491331968 -0.0108035210807894
0.0108745883735857 -0.0233246169673853 -0.0189334118948471 -0.0332632494230317
-0.0384438404612145 0.0107953771626916 0.00975442668358118 0.0225195267984163
-0.0146572961006927 -1.71427552104362e-05 -0.00177254789601974 0.00812866896181321
0.0210676718007942 -0.00229074917557495 0.0196166913560927 0.0144838477226357
-0.0193633187355815 0.0274879840977632 0.014453680845158 0.0406217800788938
0.00555872852912995 0.011643115741126 0.045433021111665 0.0303906309890617
0.00583814639642868 -0.00722054979161274 -0.011617556017714 0.0116085507584871
-0.0187224418721731 -0.0289845962564734 -0.0198021522444896 -0.00186616269113969
-0.0543800586329512 0.0122806703288725 0.00887296112430652 -0.0263036357283529
-0.0256346463766411 -0.0247685416113893 -0.0471585540413704 0.0100642373959738
0.012221617652107 -0.00263774997834397 0.0346278776649447 -0.00797439617628797
-0.0104175489653614 -0.00277912113044271 -0.0127670969086296 -0.0210629331344529
0.00905017287567608 -0.00873522023071698 0.000239479355257131 0.00423622115672725
-9.02228816158199e-05 -0.00361680752815001 -0.0182503220609343 -0.023828911893481
-0.0139808250156238 -0.0322338823150142 -0.0190039741850008 0.00490606182524117
0.0232573342548282 0.01041033393698 0.0037486369038921 -0.00448241510378921
0.0375713531996049 0.0117232555420877 0.0249144511515711 -0.00103565587878735
-0.0485222312149384 -0.010209869966369 0.00390640519061003 -0.033405389772597
-0.0192506500068747 -0.0167011473108832 -0.0129007833620788 -0.0251334915541501
-0.000408677456592391 0.0203374083753905 -0.0302385511058568 -0.0335472850752145
-0.0262213953610816 0.0121330570372479 0.0116021768232486 -0.0312515310248722
0.0205220655564626 0.0406037782058455 0.00228601708327046 -0.00485554953348253
0.00925708529308484 0.0301222342345322 0.00789382960676584 0.0146139155255115
-0.00386479901008488 -0.0143302285450205 0.0283023040886624 -0.0108053003310968
0.00332406951586282 -0.00849615836638998 -0.00975048622034493 0.0424432253517908
0.0146278323558072 0.0218286812714093 -0.0402031948480023 -0.0170082156570526
-0.011181027509977 -0.00560186606038151 -0.00102790131497057 0.0424499773034301
-0.00968123516844139 0.00684306855926644 0.0025701670411388 -0.00477128903726673
-0.008734156981011 -0.0336933938205114 0.0204615439071647 -0.0208780170052087
-0.0311666876930119 0.0100305241725066 0.00804981711541896 -0.0410892449560846
0.0150479806841837 0.00171851863709645 0.0044192373632828 0.0322522046257192
-0.00847905780368886 -0.0189522445703432 -0.00799652520532883 0.00347080736042011
0.0261052290414349 0.000328586349070826 0.0288511466863575 -0.00822997706783286
0.00672693438928395 0.00811141072908179 0.00734683527616044 -0.00943362629234861
-0.0182259173508754 0.00529968760019384 -0.0225844032129822 0.00807924774287524
-0.0271212977555932 -0.0141051112053678 0.00107412122788171 -0.0141951094336145
0.00466675518657761 0.0243411270160349 -0.0367375590562469 -0.0134243045284316
-0.0472779882746961 0.0208328717292786 -0.0132562152958995 0.0125073034969633
-0.019164190709944 0.0430436626602619 -0.00203575853422083 0.0012944715655931
0.000347750579001475 -0.00673603334267357 -0.0183703768508016 -0.0383361546537177
-0.0133276880519911 0.00427777855633162 0.00199875352048263 -0.0292695308944583
0.0238791754274951 -0.00314703587981502 -0.0177592271408597 -0.00725745791362679
-0.0143479251215015 -0.00541882875407635 -0.0191377872704859 -0.00561841773266578
0.00556294722028968 0.0714332963540065 -0.0639788894669589 -0.0321767604058678
-0.00703083146829088 -0.000885232401994183 0.0100641616171546 0.0222228993605348
0.00775229880650502 -0.00597882368432242 0.0020558141227702 0.021502701838021
-0.018090040538134 0.0109634203191512 -0.00555521820156332 -0.0119364584665495
-0.0392804099859714 0.0407575244026389 0.0209322908225064 0.026050412111632
-0.0112755609188171 -0.00205126930886818 -0.0103160004236587 -0.0171361147222793
-0.0253613537412257 -0.0301663059625054 -0.0281838844442535 -0.0236484254071296
-0.0235667803462033 -0.0200234191762444 0.0253031905841592 -0.00112280720467709
-0.0176355207268244 -0.00212895614067462 -0.0103377789395417 -0.0063252301176315
0.0110234078154509 0.0380295509869571 0.0171042194490259 0.0292645052672064
-0.0181703509400628 -0.0225147819012751 0.0297652444252968 0.00703736483228167
0.0112602763668413 -0.00986771945333923 0.00706393212811865 -0.00847851657384558
0.0304379439097587 0.0100310604060353 -0.0153131001670985 0.000146815696273649
0.018335368052524 0.04293721857515 0.0292304105577989 0.0139887208702521
-0.00212084850919029 0.0349461633571972 -0.00879617257581223 -0.0143514198409601
0.0136360323227362 0.00465916065708617 0.0309352817379156 0.0126272332322607
-0.0387591779031434 -0.0104526133552688 0.0264841467088822 -0.021587173245871
-0.0200434189251971 -0.00361828218179339 0.00809845303715586 0.0366856225870292
-0.0151481952159837 -0.00604487898299944 0.0308140630112512 0.038328459271563
-0.00168817640783687 0.043750630397162 -0.0208144822143089 9.97426598167147e-05
-0.0322915119978849 0.0124685090961459 -0.0225913791065079 -0.00357921087452979
0.00206504270683394 -0.0076762752962594 0.0275476209280638 0.00531081264222094
0.00167369423891613 -0.03302669687085 -0.0186791890874255 0.00604358204724476
0.0178049348951447 0.0132320928476479 -0.00701021679583624 0.0290246348942584
-0.0141420054397164 -0.0149607317934355 0.00703894048822442 0.00698572385456128
-0.00220281092787472 0.00499783331138838 0.0303379238354522 -0.00597321775644128
-0.023362202796055 0.0310132774598635 -0.0171686660738236 0.00892543958968086
-0.0449224252664038 -0.0170124398567511 -0.00952185650712544 0.0223753353771059
-0.00290323082584114 -0.0113358199540628 0.0059502289411332 -0.0222613536983976
0.0094836746583267 -0.00679277088895307 -0.0281605061535081 -0.0210826898094978
-0.0215469119564185 0.0230753132374731 -0.0212479579359711 0.0199664560315442
0.0222626678106781 0.0108044204161164 0.0329958350155751 0.00691406901527943
-0.00846960076438691 0.0407280726752121 0.0154568399163137 0.0451493046598236
-0.0230626495611953 0.0212883108385289 0.0258094789727464 -0.00346823731015948
0.0120959587120783 0.0251217576980526 0.0156376598214172 -0.015836431207759
0.0204779540428014 -0.0149851405735334 -0.0145379042058948 0.00433651242806285
-0.0230820559234618 -0.010068608916385 0.0190207403261701 0.0105306537305585
-0.017576784609858 -4.01501206664301e-05 0.0290938770959295 -0.0351428160563886
0.0285110100508154 -0.00679066234630386 -0.0239107479169655 -0.0244917006747948
-0.0118198759298338 -0.0144846793785016 -0.00159790557459042 0.0135860769543582
0.0224336083737635 0.00432780917079011 0.025042640032327 -0.0132504963915391
0.0156455418024661 0.00940229645373749 0.0285718407966463 0.00184983986461495
-0.0208125381399249 0.0246433359899278 0.00505392693074905 0.0321400168416434
0.00167208473682641 -0.0224786964783868 0.00725327633463263 -0.00439485985824919
-0.0134625418185835 -0.00901165506352914 -0.022158246486009 -0.0180041987915536
-0.0225867556418745 0.0162347175063211 -0.0405423420055545 0.0471811489508477
-0.00454836128405023 -0.00524832882355924 -0.0239815959530526 0.00183485449384204
-0.0456665435352564 -0.00524695434150115 -0.0190166069445004 -0.0119737892768442
-0.0247087450822237 0.0169046497863683 -0.0128416567751642 -0.0337484788878061
-0.0315830675078124 0.0285362434968696 -0.0128872491361822 -0.0469263903613083
0.00988160180862701 0.0138268445471076 0.0279574025387956 -0.0134618900878788
-0.0318501665211947 0.00438913777856197 0.00878923446080171 0.0169798336517993
0.0075562249277171 0.0166825084643253 -0.0381126046118134 -0.0248873224878891
-0.014288867235305 0.0560969432769508 0.0238326021115248 -0.023218854182573
-0.0460500028127427 0.0462092676563014 0.00280112771874884 -0.0395606487948623
-0.0129385670174158 0.0038533675928296 -0.0244045424408719 -0.0169015092543479
-0.0263105781450446 0.00343467502179623 0.000415028524078874 -0.0369769940077916
-0.0232084382722222 0.0602541939919122 0.0118710964401663 -0.0117185231935791
-0.035340801605436 0.0358885875477052 -0.014892238261002 0.0341187281196752
0.00455642501795463 0.0350274458215917 -0.012473724278598 -0.00544295407562552
-0.0072813653218866 0.011186616317979 -0.029949576464687 0.0275175837298522
0.0189560053674697 0.0352847272052335 0.0185168793165388 0.000815081642956592
0.0113432591528616 0.00150644136091833 0.0465684364699881 0.0539572358397019
0.00666538671597659 0.0217641470795683 -0.0256435922182554 -0.0315567830269452
-0.0199459801251068 -0.00701608669041126 -0.00229374538154426 -0.00901365819021981
0.0201379729944644 -0.0122645022399189 0.000708208377930962 0.00528515331903335
-0.000312971700300737 0.00677502329879994 0.00964615090666721 -0.0105790929094136
-0.0306751357064657 0.0338841009762407 -0.0263589953459693 0.0028513537855836
-0.0392267813625234 0.0221244409933736 -0.0154205041693873 0.00257544792550661
-0.0116362901736729 0.00153362977976378 0.00931521885171891 0.0188554329419546
0.0339980996677754 -0.00283706123657673 -0.00118313086371281 0.0278595632898111
0.00612801222514593 0.000493921468369598 -0.0365511684645484 -0.0107603053831637
0.0218767859391617 0.0109130461139266 0.00714480006716055 -0.00054203042032412
-0.0118647233932669 0.00862860164309534 0.0168363910891573 0.0163206664385152
0.00714884518682702 -0.00527684755130091 -0.00976404415047628 -0.0114045485970206
-0.0133580665926343 -0.0200843654332251 0.0110893126177987 0.00667757015778804
0.0152511655774348 0.0156730893047476 0.00572724835736096 -0.0283061036038738
-0.0512994230851769 0.00973602505675043 -0.00370751118514231 0.016195499579114
-0.00696138535772511 0.0197467955959209 -0.0162205144226622 0.0480260281450707
0.0213546130214061 0.00497802915386178 0.0320580568477288 0.00365863940953987
-0.00385912470708263 -0.00496476061773844 0.0127631337715865 0.0296739317093911
0.010578353963908 -0.016427566732318 0.00745479649537268 -0.0192495162088094
0.00653517586437734 0.0251575914995041 -0.0264734795277129 0.00977958577557408
-0.0173258010652263 -0.0344452200115906 0.0264153785328199 -0.0197143382199609
-0.00105709069140132 -0.00188957585161534 0.0286041486116765 -0.0152505649162483
-0.0277610662258077 0.0232174988851896 -0.015581769456725 0.00125998208485335
-0.0180004561977549 0.0015702620397041 -0.0546626223815876 0.0579052804221719
0.0109853218044876 0.0422211091516375 -0.0393400563950638 -0.0397482184802847
-0.00905965506422971 0.0136935463861936 0.00582957682407195 0.00442061186303751
0.000715448843566046 0.0501189787250318 -0.00750661218388578 -0.00703414854813929
0.00927454655346023 0.00601368899569909 0.00638699969238302 -0.0158238018377213
0.0218724048219315 0.0337864350773311 1.56137333312274e-05 0.0616037189274855
-0.0235435499456216 -0.00578871478561165 -0.0190852824925474 -0.0147699578652777
-0.0376763400381685 -0.0190249245296195 -0.00430400880274532 0.0147812857151253
-0.00839373411254369 -0.0140525179320876 -0.00777192308662384 0.00990207396959377
-0.0208015508002443 -0.0266476276936478 -0.0200905780303176 0.0302288287634876
-0.0224778309121529 -0.0173878730971422 0.00254552336634263 -0.00570460030006657
-0.00094153399370263 -0.00953619938982124 0.00656305389767772 0.0142181751946218
-0.0117201720526426 -0.000619509622100851 0.0102558245239608 -0.0304217060715695
-0.0450868220051509 0.0181817734804928 0.00408186221358181 0.0238994947334963
-0.00495325400123713 -0.00203663695395847 -0.0337034564412526 0.00266513731492955
0.00606951156973566 -0.00155672640582165 -0.0423278933614753 -0.0303516471957747
-0.0374014989927351 0.0172294894705175 0.035170394882787 -0.0303456930998592
-0.028649790758904 0.00461165548088577 0.000647716587499088 0.000455526819989178
-0.0039709919974593 -0.0284386445691051 -0.0089647838029844 0.00058491283069591
0.022979181308386 -0.00142990140052668 0.0110517180727003 0.00221485797895598
-0.0216052135593626 0.000695312741089798 0.022446077238563 0.0392885188965304
0.0205072199170145 0.00829954800541309 -0.0166926744574612 0.0258513909123866
-0.0168367889351192 -0.00330535530134413 -0.0357106245603173 0.0249545721767255
0.00265110675945236 0.0141045563458291 0.00169124752700873 -0.0019655394296551
-0.00547022926700365 -0.0237368657878376 -0.0172403779127407 -0.0245321437118329
-0.0175873674355212 -0.0214908014368473 0.0158901772494438 -0.0115477583058035
-0.0389226353901656 -0.0116366470007364 -0.0287572802710886 -0.021873642684083
-0.0162859216518648 -0.00868584819112366 0.0328625388701991 -0.0194066661459175
-0.0118382599641352 0.0397561374820064 0.000402513128564704 0.00670086192674187
-0.0147625602330687 -0.0162429893639325 -0.024047429531181 0.0388438083267787
-0.0203912743754382 0.00752204509223414 -0.0334484302143075 0.0073140167696706
0.0247852236849987 -0.00194868998956369 0.0168391683523113 -0.0177884872326389
-0.0403371843547934 0.0229912034633917 0.00274559592064336 -0.0444874214482008
0.000683632258356549 0.00232907208398195 -0.0190068600994103 0.00780928460324412
-0.0399816664138646 0.0360869415692736 0.0293493252209549 -0.0221957479874182
0.0117644672727438 -0.00118297447887745 -0.00559977268253679 0.00754606849014927
0.0174249485131276 -0.00921337881005628 0.00886883875945523 -0.00865920587842233
-0.0214557754121538 0.0114305149633495 -0.0321371959145467 0.00837824587900059
0.0263962801496456 -0.0215507416919217 -0.0279915964401654 0.000247930463073995
0.0180059005710582 -0.00624506726102249 -0.0295923049136173 -0.0298528419035878
0.0147685357298384 0.0326618356944478 -0.0170802767519257 -0.0282611292546962
0.0105001228413811 0.00743483652921956 0.0506244216363704 0.0148087581862834
-0.0203822146851208 0.00147949370600141 0.000802967843744487 0.00228389832006832
-0.00894156282920173 -0.00499161768042196 -0.0184225563780488 0.00932413505945435
0.00618942039784877 -0.0293521444122767 0.0254815733894539 -0.0127579253030415
-0.00676307377567665 0.0310622094702517 0.00279907482480361 0.0197876726134965
-0.00734041702611574 0.000806555910557644 0.0207364627835065 -0.0281536864055404
0.0298190787233122 0.0096353791995411 -0.0031353568493084 -0.0065700973719036
0.0167153147005588 0.00916559950724163 0.0158997577136558 -0.00984083976940796
-0.0631959068034036 0.00970399772077027 -0.00913538259518484 0.0137014836648135
-0.0244747744876052 -0.0134233861317943 0.02395674113611 0.00388635812095986
0.0144732404912024 -0.0196156807877775 0.0262092807018126 -0.0117750101245883
0.00346387262792881 -0.00284839844349278 -0.021523174245124 0.000956341882235145
-0.0149438379223489 0.0321900927154871 -0.0150272690223557 0.0103339313677378
0.00428380008047431 0.0251347487785906 -0.0145135456242435 -0.00720907162740327
0.0113993504202613 -0.0123612860997716 -0.036894175509483 0.0085822778953299
0.0107475169195796 -0.00253709046826111 -0.0448580788319032 0.00241564645312313
0.00257349183889823 0.0511076370046727 0.00319630667092882 0.0344885410142255
-0.0209294307387486 0.0207947061908008 -0.00693687064886747 0.0065583615984097
-0.000502706455182325 0.0276933157698696 0.0401920149190578 0.0142710933655635
-0.000789974064907132 0.0168605682108936 0.0377193702266276 -0.00419757336147676
0.00188237063024943 -0.0286800833668089 -0.0246405978566774 -0.0019432299576677
-0.0264765004413025 0.00980995577424413 0.0384645160739313 -0.0238504548945456
0.0326874895333934 0.013140082636926 -0.0544803171351661 -0.0196763786088911
-0.044983655872021 -0.0294091427142471 0.00981113290892107 0.0143404440065092
-0.00177869804247297 -0.0133893787876126 0.0218721513452188 -0.0269483048812216
0.00393020539300217 -0.00194131400746921 -0.00940452186372866 -0.0241687049877633
-0.0102505578063526 0.00179027905409238 0.00832132621686558 0.0335052241710423
-0.0274661899433961 0.0152742813782624 -0.011310588782431 -0.0425080577769024
0.00826397076020455 0.0142681438435235 -0.0245933084625765 0.00187834796468409
0.00125700337394926 0.0336308788169734 -0.00763930349751881 -0.0281053753572951
-0.000206659905422588 -0.0121402287373681 -0.0009856267976377 -0.00687494826853547
-0.00911586933119346 0.011254573318386 -0.0433229220804374 0.0333203934328403
-0.0460500878596921 0.0194413038257754 0.030698768099712 -0.00649950690884388
-0.0458679459150991 0.00705137573942797 0.0266943576824985 0.0188826348193707
0.0300123231618581 -0.00308542493404796 0.0114396753277707 -0.00419494853053142
0.0120198986590541 0.0056510453951674 -0.0291033545140684 -0.00174757216559107
-0.0308959488472811 0.000509145750037415 -0.0375297314615946 0.000130900039788571
-0.0148006264385244 -0.000250496020012839 0.0290814419009597 -0.0143840269677781
-0.000264476074086406 -0.0209049241090804 0.0342502683480449 0.00595429877440432
0.0360726563492346 -0.00363860053038725 0.000717234576418175 -0.0017782521910772
0.0323924061689198 -0.00886505855158527 0.00550735271303944 -0.00229741528210966
-0.0223917149491356 -0.0163261478972583 0.045854024046263 -0.0363157003592406
-0.0149832256721949 -0.00926855661064713 0.0233822305215245 -0.0221872399828533
0.00367797685339318 -0.0119890055563349 0.00589081111591015 0.00705620416688678
-0.0476270215048878 -0.0175456332852346 0.0030210024744342 0.0079559985705132
0.0284761736360311 0.0159837840053744 -0.0113063294043505 0.0563069772856777
-0.03671191572915 -0.00809927237759622 0.00418453120070628 0.029696225595818
0.00477636779354681 -0.00144072934556455 -0.0220823004439869 -0.00224827633479612
-0.034307633572458 -0.00231121670297106 0.0035954681452017 -0.0480417741097365
-0.036513595722112 0.00945014953234889 0.00724188946568189 -0.0412463747632438
-0.0227752631044006 0.0145230935880467 0.0179919271561755 -0.019068944845092
-0.0169869389269433 0.0454340982772972 0.00876416146364698 0.0317672914843606
0.0421119354472918 0.0103026666837124 0.00780862036396076 0.0254146878113945
-0.000583677340853672 0.00108831215072686 -0.00514891401533389 -0.0300517952608409
-0.0073238508878093 -0.00387514920234246 0.0455506387805233 0.0408996791347819
-0.0181587963859627 0.0227995539838494 -0.0277799795924473 0.0451792355510731
0.00769672122154559 0.0344704422522274 -0.00270058331482831 -0.0231100540817681
0.00642380845374465 0.0532213989419313 0.021792129586258 0.00633818363403344
-0.0171692061582979 0.0368889179743461 -0.0148394872480861 4.78166764875349e-05
0.0154460193084087 0.00888620492240752 -0.0498519223125865 0.0199588439430974
0.0037446175520594 0.00496616008875004 -0.0361954017548556 0.0283714532142436
0.0227844141912952 0.0306435833529402 0.0196857672735949 -0.0280315717342265
-0.0177513549511999 -0.045353015169895 -0.011919767723834 0.0120361532538897
-0.0107376719200016 -0.0273302905423226 0.0216800679929343 -0.0378876398863627
-0.00120505517420714 0.00344436820716761 0.0358038816026799 -0.000554136036427112
0.0207654528658513 0.0593498506964781 0.031938641255642 0.0120702519794266
0.0136001013104422 0.00378004137326213 0.0152443124239669 0.0251559534170207
0.00538543696041958 0.00562943846623021 0.0326224044309803 -0.0174444859566108
-0.013134437534808 -0.0193637512923942 -0.00488308378164831 -0.0166754588328627
0.0281278453427088 -0.014249319133528 0.00978196998299805 -0.00802974312815025
0.00388628405890084 0.0133990385035501 0.0189563003429627 -0.0235967832028812
0.0193869705791047 -0.0122392117093228 -0.00270699256392872 -0.0177592357177312
-0.0230215059568579 -0.0220574709400636 0.0080337100242887 0.0104394223852637
-0.0129710532693993 0.00539201652192025 -0.0232615843029959 0.0213638862021571
-0.0258909375192345 0.00638914366536898 0.0264482552528046 -0.000940791227157231
-0.00534863691115725 0.012405437356556 0.0191459168462669 0.0195051872436056
0.0245401971099028 0.0162832899176991 0.017782811138886 -0.00234117548974493
-0.0385258621989196 0.0403323870301753 0.01029086698164 -0.000982227725471858
-0.0156045096955901 0.0204682427518455 -0.0229566434522312 -0.00504515845773469
0.0216543367618932 -0.00582937064862209 0.0228553281453168 -0.00567308115002141
0.00367530030967507 0.0340145949859219 0.0129328808117855 -0.0110571610075674
0.0180461718313073 0.0135554207455288 0.0308792799369497 0.00429628771527117
0.0226413358349123 0.0348201196144771 0.00430376502973585 -0.0111682992608118
0.0108986065053901 -0.0192303321001852 -0.0220163812789537 -0.0138133163111527
0.00450767284756309 0.0380481009143435 0.0191283910464866 -0.00853563183366629
0.0054735125365236 -0.00850255545176018 0.0220722949589389 -0.000329605603617719
0.00883071831240606 0.00522973240724562 -0.00446138794629005 -0.0267662104728263
-0.00466491674743431 0.0104474649857743 0.0165093206682405 -0.00379736973961931
-0.0119512405856369 0.0116259144536787 -0.0171807643547128 0.0154525795044669
0.0270233068680777 0.0209123156016905 -0.0160283775150525 -0.00864003090496121
0.00224746785624053 -0.00476964284742575 0.02047506242504 -0.00432917774337653
0.019053283556986 0.0185633143118498 -0.0252671388017314 0.000950345193729741
-0.00958432159073114 0.0218979893997353 -0.0132962722825576 0.0159417800367261
-0.0236910566798835 0.0211997917917333 -0.0150375031605846 -0.00274891258269474
0.00694235478851971 -0.0286072857367935 0.00460143576595461 0.0276599436802595
-0.0289928181971281 -0.00207119971259742 0.00097708287670894 0.0205130727465187
0.0197035511182466 0.00809632916463242 0.0206462598653089 0.0162227478215482
0.0158407324874087 0.0178920343882347 0.0262158340641741 0.00824768287532272
-0.00350627271930795 0.00331770566374239 -0.017040351721577 0.00916998257616482
0.00398697453317618 -0.0187806701950061 0.0257818322527686 -0.0276860178187944
0.0153251110863489 0.048656320853549 -0.00785370482625358 -0.0211545040966166
-0.0343423388301558 -0.0121063517317279 -0.0149884939061348 -0.0397454191317449
-0.00545591290717312 -0.00209570497460812 -0.0155287062639854 0.0148082564103412
0.0241485360882372 0.0131602029115935 -0.00444346209438564 -0.0222242667610661
0.0224393487820523 -0.0116709826099008 -0.0208237366857549 -0.00788953799814276
-0.0191343143023766 0.0364071245185466 0.0153827868231881 -0.00498580725224059
0.00327941972291543 -0.00397228029038981 -0.0045029503116892 0.0342939006606682
0.00711272456987754 0.00807196459669548 -0.0103728520894771 0.0141049561023277
0.01795901485498 -0.00643627629146641 -0.0276648316823705 -0.00657741224815492
-0.0274902851802847 0.00793579644284918 0.0111087602013212 -0.0310097995183016
-0.0154333710237069 -0.0289251164320215 -0.0215219923517198 0.0112026300384006
-0.0206144525695017 -0.0109300517154935 -0.0162521620506067 0.0275108857240306
-0.0173044368745648 0.0313903854329965 0.0127277011212609 -0.010637413827137
0.00700510926821629 -0.0043433336112968 -0.0133678787368825 -0.0161053905559807
0.0185929946758373 -0.0056615225799723 0.00868394405775375 -0.00413503962366708
0.0148342328901735 -0.0262076564786399 -0.0200626412848177 -0.012950164563646
-0.00902507193423948 0.00632441689587866 -0.00282298374547963 0.01631752363915
-0.0186855485891015 0.0651839172141493 0.00181597788187443 -0.0146100024384151
0.00600359909112239 0.080867282247231 0.00108721226369905 -0.0104220720439343
-0.0264200572462203 -0.0299040191358574 -0.0207082411058088 0.0225411449552674
-0.00759752480519787 -0.0146078456901758 0.03371682597995 -0.0171125189613603
-0.0135440730975889 -0.000226589138697638 -0.0162165489928028 0.0174824040795008
-0.0196980014221899 0.00512691840473879 0.00353135861994308 -0.0264199336055562
-0.011249531418434 -0.0124808902113327 -0.00718250323347138 -0.0124136466905183
0.00467284715752013 -0.0211055643590582 -0.0474986905830779 0.0123172443494417
-0.0423108969708049 0.00913832313447425 -0.0231327254710503 0.0266643315534175
-0.0143844858316754 -0.0147182190387687 0.00610954514107139 0.00309175124219728
-0.032344278652248 0.0128264775483252 0.00416233442688579 0.0161451395463724
-0.00492408180881127 0.00902434368844857 0.00666788372018294 -0.033240048233934
-0.0111609475593579 0.0187153198778185 0.00674410457846407 -0.032805859396097
0.00851594597082172 0.0118757330013845 0.00975567403683163 -0.0266017912849427
0.00206693745194211 9.08898286675176e-05 0.0275791975935527 -0.00139211232579318
0.0130739166705193 -0.0150049697985693 -0.0296718038425016 0.0276781545005352
0.00788271139073962 0.0469561175477454 0.0182039827988252 -0.00787515564045903
0.0186474612554046 0.0204796290935147 -0.0333113647045597 -0.0341233417287497
-0.00807586044170181 -0.0170719019072553 -0.0277235315542262 -0.018270924901712
0.00561200075537297 -0.0124017472082798 0.0125739800705909 0.0198074605871644
-0.0279357675984949 -0.00318897006951418 0.0015667109658634 -0.0116726799613061
-0.0236293932904777 0.0184525100572499 0.0323158089941802 0.0169062943390312
0.0139821710154261 -0.0207783839799195 0.00877088780883619 -0.0186131448384897
0.00761929181836066 0.00990898753571247 0.0132488763119682 0.022264387773881
-0.00257584864705618 0.0197516066027649 0.0343074086271548 0.00397253751604817
-0.0188985736055884 0.0209945958985172 0.0228007319464973 -0.00725369403678996
-0.0162013643328017 -0.00169988235033199 -0.00550074305625871 0.0343355596709661
-0.00182594749436551 0.00932972244668267 0.00493709337324074 0.00366903332213214
0.0220868230247897 0.0210625005244043 0.0267983846545362 0.00303770681240246
-0.0165813273398472 0.000826136930750735 0.0160288889380905 -0.00036883381046994
0.00559355261679062 -0.0056880733311424 0.0217298322806351 -0.00413629914892894
0.00279099148587468 0.00322711528122176 0.0307145026482054 0.0135001985465268
-0.0120545168483719 0.0122559311902905 0.0315659880846597 0.0394463981399233
0.0227223727138049 0.0213943608355916 -0.0186810973271821 0.0117449235560305
0.000856753989663448 0.0368135185264702 -0.0160833707473618 -0.00924246863420681
-0.0166721279269143 0.00839172755014725 -0.00920514594546968 -0.014473091731499
0.00910166292057772 0.0241719687932427 -0.000735403726184123 -0.00816902522672787
-0.029112034534035 -0.0178822877290937 -0.0162151181774561 0.01217501884953
-0.000251383542607057 -0.0183528805979161 0.000979950655668884 -0.0182513884078382
-0.0119818306292439 -0.0143353520834053 0.0260203629688661 0.00830510512446489
0.0228528983990972 0.0206596994889771 0.00761346267913409 -0.00488238638246752
0.0152281557812868 0.00717265350747767 0.0197820378908348 0.0538874938991682
0.0271605442510673 -0.0107879091463887 -0.0306187421717956 -0.0315996329533164
0.000690345959174794 -0.0056604623419925 0.0154993517491184 -0.00990787005689943
-0.0190997101825002 0.0395657718366896 -0.00840330346517829 -0.0149785754973359
-0.0371474696712823 0.0130046493165483 -0.0205565039814426 -0.0382234133669425
-0.0253656653784734 -0.00431242576279966 0.0177576445578787 -0.000756918954998853
-0.0378082539029017 0.0346028484760722 -0.0193555272445959 0.036093520464536
0.00782605534794898 0.00531763847543138 0.0239733836638988 0.00573758390293814
0.00615228544630223 0.0147967964542675 0.0216210280850862 0.0478796308334206
0.0108205507339783 -0.0285714497334714 -0.0264029367618913 0.0063120939169081
0.0184264198940502 0.0305113311655453 0.0207107082726762 -0.0041160844109563
-0.0415620883645939 0.0139339603741567 -0.0357200148600577 0.025054223891141
0.0235767852079132 -0.00686148756293487 0.00734792386934624 0.0132114530110911
-0.00592338268308958 -0.0088755858958486 -0.0213249034106064 0.00079060452381615
0.0269301156581096 0.00131058339508507 -0.0028589708783766 0.00903661369718152
0.00684763348621619 0.0168373194312398 0.00172296003627206 -0.00915657518462355
-0.0346820329183018 0.016059927386857 0.00536381020854761 0.00287212878685018
0.00828426884780026 0.0399512374012479 0.00424025085978199 -0.00546745714038482
0.0301021633037794 0.0307220545178393 0.0210968640258008 -0.00672385881618722
-0.0136618943045475 -0.0165535839011643 0.0240524179219808 -0.00683459406061399
0.0127498912968277 0.0324682118654012 -0.0149427201136528 -0.0104321321860316
-0.00771131813628924 0.0371192208398309 -0.0127699077110795 0.00624945837109915
-0.0162542727645053 0.0252445067947024 0.00388484760629333 0.0275067675661828
0.0028099145070443 -0.0235160595669532 -0.015533314014222 -0.0121028155698099
-0.0526071802157925 0.00112351295417969 0.0168478458017394 0.000778806775546033
-0.00017182208828055 -0.00582106587105858 0.0175901781734335 -0.0259333176003871
0.00247138843615066 -0.0178144446502866 0.00688015263356681 -0.0107362147960721
-0.0271869249468367 0.0146931653942091 -0.0182016276622516 0.0170719388563502
-0.00881577003424477 -0.0167086549669926 0.00482435861831177 -0.0228070304206993
0.00564679328652358 -0.00494414047141666 -0.038463199788697 0.00320154892115974
-0.032200224576665 0.00324382894045787 -0.0302346603977217 0.0370637438724835
-0.0181945168937024 -0.0116681991524273 0.00723813767680507 -0.00483858604171734
-0.0302455022712438 0.0350841310509602 0.0163248837571305 -0.00688545737138031
-0.0195461221121247 -0.0307452378144749 0.0303142015886031 -0.0222092862740458
-0.020738951801179 -0.0201296197448647 -0.00855664945643391 -0.0262237602389068
-0.0245336284555589 -0.00560965555135463 0.0102904899069144 0.019934624410373
0.028893172523668 0.0100475001798346 -0.0294509077320438 -0.0122095764694245
-0.00330200077321898 -0.0211081379089959 -0.00515735756982321 0.0197074577697033
0.0296969844079098 -0.00967538378008509 -0.00670280938984974 -0.0034536749702007
-0.044924764947771 -0.0109012295888396 0.0123252378291314 -0.00583364869661501
-0.0365039245395969 0.0149609285703152 0.00780937837210222 0.0043777750379052
-0.0256313928955829 -0.0188192248221712 -0.0129515219233616 0.00820480034674217
-0.00103006755507053 0.00787419197128954 -0.0197191887907584 -0.00560955460446242
0.0208505440263643 0.0326338710476979 0.029075829956612 0.00646497437994089
-0.00379452792809684 -0.0169690197236616 -0.0445025800606179 -0.0255709792410328
0.0287944405833142 0.0111339256824413 0.00969672399460652 -0.0103719284740296
-0.00846699488784434 0.00948792420334531 -0.0252331731715381 -0.0145036233186922
-0.00247001346100554 0.0280356143206867 -0.0291616465043087 -0.0230454342420226
0.0121231526920607 -0.00654871982365245 0.0165330727590732 0.000121087459352583
0.0014039004712263 -0.00871181131837142 0.0261960548906944 0.00294368347092459
-0.00545743788240259 0.0389031127747017 -0.0193841112024296 0.00822832686933983
-0.000361786868049284 0.0220547811515546 0.00162050998375166 -0.0166193016467541
-0.0135738570782604 0.0389305459620364 -0.0166302435392726 0.00244505388296082
0.0344836198893852 0.00584815012136506 -0.00512220782753215 0.0288394602266439
0.0353534332937635 0.034553105953583 0.010016569555407 -0.0101974018127024
-0.00617553560854674 0.0380315612998965 -0.0024695093583124 0.00633446382799164
0.0296761523432635 0.020753007837218 -0.0265070177039216 -0.00992348867799306
-0.0184921479584776 0.00927757843626898 0.0215336183943787 -0.0159981549086766
-0.0342229264934753 -0.0347314365973737 -0.013307244034012 -0.0170509832304106
-0.000195770521923924 0.0281761328134743 0.0123136014698058 -0.00755735939936843
-0.04898839444292 0.00409726638310957 0.0112379444776879 -0.00490524449527822
-0.0185605512235606 0.00845546930369291 0.00376674622128543 0.00463203150902457
-0.0297326326950178 0.00369141357095946 0.00229813163221771 -0.0258295519279598
0.0133065450259376 0.0159702154446369 0.00604085198294453 -0.0291843769517151
0.022528630642538 -0.0109426109164116 -0.0239342598382371 0.0391642857532502
-0.0111704584310664 -0.00916327479187153 0.0143103859592202 0.0325381595994637
-0.000268599735664174 0.0331330715246203 0.00518818471002399 0.0274060966267489
0.000412000921499009 0.0393065540060388 0.00375367576911603 -0.0154032197609316
-0.0397595555987788 0.016097848226586 -0.00688100832252831 0.0180270081460242
-0.0382192529143663 -0.00230775364631281 -0.0201748472998023 -0.0205064873701667
-0.0134789320186801 -0.00554183039608657 0.0583176306550638 0.0133253527641741
-0.0468314522416417 -0.029256124191529 -0.00913197398331045 -0.00346891814698207
-0.0235931894905346 -0.0443305384208768 -0.0389579069492804 -0.0292167127784883
0.0186587851071634 -0.000937498113618011 -0.00641495135599649 -0.0110104332721954
-0.0138154242092521 0.00227162288825216 0.00865513507684886 -0.0298007780011547
-0.0170877607915533 0.0154532692176291 0.00382423762134544 -0.0386812456068968
0.0309787634272168 -0.00711324142036378 0.00245864932436833 -0.0173137097063689
-0.0236945899304877 -0.0127061456253175 0.0103065879452355 0.0254920393479995
9.25253498036444e-05 0.0554030866679146 -0.0141764939585922 -0.00438223975680256
0.0074050304628732 -0.00424690350861011 -0.0281014189256762 -0.00990700601018224
-0.00592113945342573 -0.00130251449068403 0.00792289002489679 0.0356715111056279
-0.0127559541412454 -0.0126270900999741 -0.00576694281892345 -0.0221249537732907
-0.00361998866247147 -0.00245324344259886 0.0292968578054326 -0.000554125675092094
-0.00559033096042048 0.0361192547093201 0.0259217182819756 0.00333213311801015
-0.00429893917424823 -0.00232722623446711 -0.00870746728391418 -0.00525228121443123
0.00507078510786824 -0.0134302017877633 -0.0414846532036123 0.0100344475631951
0.0224612982699035 -0.0210134558091693 -0.016257268916644 -0.0206197865620693
-0.0515150450473009 0.0236839420769113 -0.00953789172124712 0.029099735652006
0.0233774938619635 -0.0051485087131652 0.0159651158399588 -0.00260216187136734
0.00327292883894641 0.00183888086762664 0.0495322784036075 -0.0128503590528977
0.0260339229265263 -0.00148505958065983 -0.0027256974087746 0.0123818652061313
0.0110028193704284 3.22447382694526e-05 0.00229798533002088 -0.00950551503857652
-0.000212706306674095 0.0414596380403042 0.0102791670628284 0.0171976521310599
0.0253596795595456 -0.00742632999075714 0.0148544307359322 0.0457449219050686
-0.00891790966607883 -0.0152112206563103 0.0137251461044311 -0.01454165481435
-0.0147135134580938 -0.0169899960686825 -0.00824248441768278 -0.0147084504227868
0.0119393412262801 -0.0155986779702752 0.0257160035873557 0.00438256048263725
0.0120479794851501 0.0245309019571061 0.0346695714561284 -0.0106509300106863
-0.0363072163415564 0.0225546572961297 0.0010670936292746 -0.0122571790050977
0.0320811322289635 0.00989868210141174 0.00199623056488587 -0.0041989972443829
-0.0051323252099594 -0.0154090285038043 0.0112443086298125 0.0100154667739699
0.0195649492996695 -0.0034938092499245 0.0133521494060641 -0.000809216116035072
-0.0187705036797067 -0.0298299965053109 -0.0239269531367307 -0.0147223241109204
-0.014466792328662 -0.00527428828198595 -0.0581295312583348 0.0434948303196681
0.00517250313176403 -0.0360948635727469 -0.00155432599689102 0.0120138407941943
-0.0431683766571899 0.0234227426640133 0.0206943034390655 0.0287799166241968
-0.00757719568708773 -0.0121656784444344 -0.0131615141675225 -0.00165202685372974
0.0107722307367725 0.00870972706729661 0.00266388930016953 -0.0187526690875564
0.012157515579319 -0.00244683432430178 0.0101031198951769 -0.000444940321103208
0.014286682425058 -0.010779404059502 0.012964444467379 -0.00364330568841643
-0.0394858214647802 0.014989533344035 -0.0168553022577583 0.0199315211516104
0.00759924946531125 0.00762371824483482 0.0299155635846745 0.0559871338324998
-0.0281152492862863 -0.000984690343593187 -0.00657747897846964 0.0116597457385498
-0.0194539998587066 0.0267283959177774 0.00468363174247307 -0.011625551937882
-0.0351298157898755 0.0279228881223803 0.00112525153420536 0.000618492923081222
-0.0326587862870576 -0.025338074073084 -0.00687041387311652 -0.0046365098794016
-0.026917301863985 0.0298939773602884 -0.00451345822885099 -0.00109255794712077
-0.0161895134007899 0.0132680609115281 -0.00158909020554099 -0.0191652542324029
-0.000294660518692603 -0.00523049028917675 -0.0275069677837424 0.021413634414799
-0.0062668306363183 -0.00134591123568346 -0.00415017924205065 -0.0283694500363565
-0.00768510983471307 -0.0100315086697906 -0.00919553819945486 0.0202426776608532
0.00151315060733916 0.0482847163036453 0.0150370052667095 0.0476623540852409
0.0112139003429786 -0.00227738936044424 -0.0227003988195704 0.00520196086190821
0.0117580616135869 0.00642774442668317 0.016376337973373 -0.0214939993082937
-0.0211889510833014 0.0490377234226878 -0.0226166437465013 -0.00384677781945625
-0.00539999764605675 -0.00056665794212063 -0.000784549271736566 -0.00717654865526822
0.0316210916649283 0.0214006543559277 0.010097854144616 0.00661196017602783
0.0147854443044441 0.0185890019898123 -0.0426758353401725 -0.015527459202207
-0.0190667734024718 0.0175136332060668 0.0178354256883173 0.0106457928998803
0.000333771652019718 -0.00565839678671934 0.0279233867360747 -0.0181221072202583
0.0204694552137262 0.015370607344567 -0.0012416043589719 -0.0117564694047688
0.0166235254035639 0.00708487065097461 0.0231908499138314 -0.0138323166450344
-0.0157487744148923 -0.0074813112140861 -0.00430911074310767 -0.0297752113819673
0.0261729328296153 0.0239318308525885 0.0216963879685143 0.0418815803093859
0.0275563544750015 0.00972881746354441 -0.001225775516362 -0.00331952701977591
-0.0276007355281004 0.00502636108071319 0.00373814851878622 0.0500204302919223
0.0290977522314301 0.0259090789124064 -0.0390027190940946 -0.0223303727739957
0.010593644847777 0.00191053626098522 0.0179477124343423 0.0153502647388663
0.00953526274548581 0.0414942572435114 0.0142679821004309 -0.00889794971396553
-0.00311983727723171 -0.0234012920143148 0.0269655468069372 0.0126264331901558
-0.0020041652363028 0.00852264165338753 -0.0293025990827554 0.00673569899476267
-0.016223983639053 0.0284861632234748 0.0417738593324292 0.000342591136818665
-0.0269414864059049 0.0291055132139007 0.0205334318255158 0.0167865333272303
-0.00242212229980951 0.022888948852908 -0.00721056209338468 0.0128885320664887
0.000649631255817239 -0.0069620224359624 -0.0045771457371648 0.0342012815805716
0.0032037856999361 0.00917768757445953 0.00154367117835227 -0.0172620148997128
-0.0599720230927145 -0.000209630395931239 0.0162223208642073 0.00194090381395323
0.00299626038430487 0.0330317735719101 -0.00830489935687468 0.00437471546449791
0.0116953029318134 0.00205870796440737 0.0083966889773759 0.00102741567025581
-0.024757961371715 0.0314538332996981 -0.00218674823609493 0.00489331748269971
0.0216787483941103 -0.0107201100283657 0.00712754805401579 -0.0045200783900993
-0.00652741603180593 -0.0126181392091022 -0.00469615118513551 0.0610487345973606
-0.0714328008570435 -0.0063939747443101 -0.0176812074596478 0.0527121947851893
-0.0153310787129103 -0.0403679127282599 -0.0321240948014065 -0.0318162517387633
-0.0036636874025245 -0.0221575673949782 -0.00296928659946064 -0.0172499466852104
-0.00425530923729173 0.00183756110154766 -0.0560459809772079 0.0484230850324507
0.0193033906674744 0.0336843860876458 -0.0145266613909637 -0.0093771810739254
0.0125052781115742 -0.00576188123334009 -0.0334425662321402 -0.00326540185301768
0.0219856957970415 0.000182003513071336 -0.010325061851857 -0.013390646268969
0.000460963029288273 0.00843251214233796 0.00745568327290798 -0.0414514429458358
0.0097855140491708 0.0161439141823929 -0.0379624011880077 -0.0270964924762805
0.0118492178825774 -0.0239543013264533 0.00905006391841679 0.00628214274997218
0.00774661822952238 -0.00694166977408978 0.0180369330932627 -0.01045118174194
-0.0410990027230825 -0.0104446420640326 0.0181298496516155 -0.00695466171581383
-0.00925225689821368 0.0717268149420781 -0.0248666111668468 0.05429921978837
-0.0111357976270239 0.0107410333011914 -0.0088737745702181 0.0220829291703406
0.00631002315740326 -0.00188421961296224 -0.0179909846357956 0.0506739438256587
-0.0312227349519242 0.00464054509453594 0.00122627811474958 0.0113943804488139
-0.0011841086924634 0.0225373514469929 -0.0164946308649199 -0.0168420556527848
-0.0133703492033677 0.00436848271101126 0.0389288171103118 0.0154877348082325
0.00302267344173572 0.00626940394851844 0.00934057696908426 -0.00467610331103046
-0.00520774416429684 0.0333147461454669 -0.0352343569544476 -0.00164825606949278
-0.0181477944500319 -0.00616007390726502 0.0139264042563023 -0.0332634446265307
0.00179175564772083 0.0223335731780658 0.00596453268231402 -0.0216307700788464
0.0184251567982584 -0.00852367716367315 -0.00219737061750983 0.000136366844367484
-0.0217697023760886 0.0249070674637304 0.0154582855681799 -0.0352156848153251
-0.0213834241811682 -0.00518438216002803 -0.0330870421078677 -0.00989376206848999
-0.0358397098651438 0.0253871454059153 0.00360819847368402 -0.021830752673365
-0.0177751849040034 -0.0237891402541765 0.0341069850700311 0.00461198879807416
0.00172061932129471 -0.0180357588813944 -0.00619421003396273 -0.00434717012961613
0.00464253359178052 0.000274322632478927 0.00541466635632974 -0.0130476376793311
0.0290725414624022 0.00820218057166523 0.0220918804495207 0.0254973526998353
0.00358558118180528 -0.0163360715884862 -0.00810085537471792 -0.0249416326472704
0.00985730305546031 0.0342013911750967 0.0194942814125308 -0.00984673844760336
0.0160286775031174 -0.00317183933205526 0.00965404077917556 0.044079438400499
0.00220172579709676 0.0530491922059136 -0.0346218691474587 -0.000120247056910191
-0.00158711248330542 -0.00942864216090694 0.0290060493354128 0.0259847934445192
-0.0254391477197143 -0.00268394120226625 -0.0192816984644281 -0.00082690605095613
0.0203560596561999 0.0331124559821787 0.024560872081291 0.000484665914369295
-0.0163895433512329 -0.000527091947602823 0.032081275661922 0.0116581479111677
-0.0352774307720017 -0.0133560336966729 -0.00973692732985081 -0.00018287624170172
-0.0217050459100878 -0.01796993870694 0.0104029779446559 0.0126994385034784
0.0153570078788872 0.0108171301310295 0.00894457464659858 -0.00808804905831635
-0.0229449663486625 0.0232961289332412 -0.0294274193717703 -0.0119382272135369
-0.0320514919488632 -0.000414223342530396 0.0313555662669041 0.00700899628209219
-0.0165798976113654 0.0280064715967218 0.0194563409734255 0.00327311486210583
-0.000228815982705127 -0.0145284198056589 0.00480834937879747 0.0287624935431459
0.00242304972365296 0.0151583041297827 0.00419213805172808 -0.00404216825897744
0.0210845903987616 0.0170896269244047 0.0146067090005088 0.00801258002918289
-0.00571191077832818 -0.00328905110197766 0.0221945242322785 -0.00426850110454281
-0.00678484938671959 -0.00782176937365133 -0.00156985601514903 0.0383478162233187
-0.00405472649690654 0.0141550108393689 -0.00015426100958144 -0.0110093426313603
0.0147681558214864 0.0309492176857319 0.0228909508825656 -0.00185732658553349
-0.0400066799421182 0.0114351823449253 0.0352235786067118 0.0239688869449226
0.0139686748544839 0.0257555948893391 0.0337901586999567 0.0057058726097689
0.0105341936902052 0.0257495019100147 0.021185882337854 -0.0126910315871717
-0.00950454266578623 -0.0206824269468132 0.0395873447967376 0.0146780957512475
-0.0104133112733987 0.0157843004592926 0.0323834586443607 0.0117208596726185
0.0165960475733339 -0.0160675440402067 -0.0227807636238345 -0.0146094416062031
-0.00755754268342679 0.00107571180515389 -0.000316584127944037 -0.0233695056693032
0.0155073780520709 0.0482220233712246 0.0125633944683241 -0.00901350843620805
0.0281297838878261 0.00906398833035485 0.0122399370062299 -0.0192262576112207
-0.0031619438441563 0.039371563429876 0.00587010802283787 0.0212540971677488
-0.021134017046976 0.0231049184398117 -0.00660554457035001 0.0286919576255589
0.0153613769637394 -0.0100505933796314 -0.0155489216968285 0.00821911950826776
-0.00201327218132994 -0.0235368674409474 -0.0319149326618547 -0.0330737668100157
-0.030690888681357 0.00944162189091753 -0.0475847486274576 -0.0106614400227751
-0.0106643560089538 -0.0203946636801744 0.00473491319378334 -0.0290937532326728
0.00519191629290008 -0.0129525896182372 -0.0142420754035792 0.0110297853375449
-0.0341981125645651 -0.021630789446886 0.0131066442556932 0.0337614957347261
-0.0296042072586699 -0.0135620701700843 0.0245504721763885 -0.016084564678308
-0.00672456970772771 0.00547500077783713 -0.0140223038592868 0.0219162967138038
0.0382027992697848 -0.0106487172946794 -0.00307445384670881 -0.0166175383555775
0.0152507942131928 -0.02719162651965 0.00293906738229328 -0.0349593983625619
-0.0104055693781042 0.0434290582585217 -0.0327018700338967 -0.0355005808691545
0.0105855703158336 0.018689749118063 0.0296007463538782 -0.0162519173005921
-0.005371065557353 -0.0132621266735105 -0.0169480364348058 0.00992496825822948
-0.0227603159669625 -0.0311923703404054 -0.00726786093392069 -0.0270309511502409
-0.0382112718287767 -0.0258621986203438 -0.0222967721534153 0.0260078049334881
-0.00137560031191197 0.000810239930522897 0.00498968142717694 -0.00642129445969955
0.0304643654693106 0.0275198954736424 0.000997168380110255 0.00464617758354383
0.00825581318121023 0.000371477521610766 -0.012729608825757 -0.0190152097941454
-0.0307811368719249 -0.0091079723115561 -0.0114256978541166 0.0218268202987477
-0.000284996592414475 0.0418882393156165 -0.00418482448934784 -0.0178339280709278
0.000401804232873381 0.0434458717749161 0.0173771719659791 0.018071600179381
-0.0128700415329071 -0.00352008254977424 -0.021497155344901 -0.00388656415416297
-0.00655933145527898 0.0673289837284709 -0.0396282572254174 0.00172315982669826
-0.0123813788256249 0.000625098191296697 -0.025832542242958 0.0172882153403459
0.013969374191076 0.0267560622427743 0.0151454683144231 -0.0199413515256524
-0.00970074377687683 0.00416710878194476 0.00805896770219098 -0.0106634095451778
-0.0280163008475354 -0.0317226939513378 -0.0243725134674756 -0.0109430229412498
-0.00640071236011923 -0.0208019474590561 -0.0131080672464658 -0.0128759283907033
0.0115683809411195 0.0406377625963639 -0.0119500748036683 -0.0142147181063142
0.0131976311875023 0.0141097197174595 0.00526935085326576 -0.0133366489621951
0.0158531003727131 -0.0210261405728908 0.0589898035169606 -0.00899252129055371
-0.00901760949573883 -0.0132079887887974 0.0374749200916458 0.0147318803243868
-0.0114924479646077 0.000400718459974537 0.0293282173600855 0.0229897219250215
-0.0159976078081824 -0.0247373130228487 -0.00773310696338175 0.018861766841891
0.00216911385987553 0.0399462606558418 0.0218066596991229 -0.00539724801169387
0.0031479100861116 -0.0183442707449608 -0.0336981921390207 0.0419365227799334
-0.0205354909672138 0.00276001606039483 -0.00649316486813206 0.0379440248805944
0.0157199945758302 0.0314161481433249 -0.0146234399633368 0.0150180439698848
0.00958828929288782 -0.00435951850390448 -0.000539675021028971 0.0172519858911968
-0.0272076255491292 -0.0363331954905863 0.00668349536734193 -0.0132798636641256
0.00652422424269951 0.00304512475947036 0.0169115889624288 -0.0025297809041162
0.00953274282224756 0.0111292035948296 0.00929027535048298 0.0193357888419363
0.000217402230252548 0.0287626790150597 -0.0341962664205289 0.0477390823834688
-0.0224893494759611 -0.0100018031696534 -0.013694271203178 0.00786336561697286
-0.00823219973360148 0.0338300744158958 -0.0210538043355188 -0.0137852277857386
-0.0528274799338893 0.0151931832529626 -0.00757510159493154 0.0257253375362182
0.020882347440785 0.00502171405517077 -0.0146847708574101 -0.00597406536798365
-0.0254816143904452 0.0267814457867197 0.0343443089778245 -0.0216244048672071
0.0024708485449029 -0.00492429523037729 0.0026651573091803 0.00950692684897015
0.00218719403181484 0.00962672235388248 0.00476882462699846 -0.0174156378943778
-0.0175462030365777 -0.000606187842437849 0.0126992164933731 0.00823211055801359
0.00812149107537156 0.0367587996036039 0.00490620396181695 0.013259704169002
0.012935950078249 0.0275462713585746 -0.0127110367288777 0.00507008240115199
-0.0209263353812508 0.0328936100069243 0.00822766680603593 -0.00323817999429694
-0.00628147982099476 -0.0112421063095066 0.0143667852069015 0.0176335021460998
-0.00983002622393096 0.0109451670856702 -0.00337563094130584 0.00267800852716758
-0.0114802106570845 0.00974898385735315 0.0117618288977131 0.0222829837157411
-0.0527050270514479 0.0254389844024495 0.0240954620397299 -0.029699341379956
0.0209111452854913 0.0161241310989481 -0.0160286820653578 0.0310343137775326
0.0132556403406373 0.00912522792493034 0.0318351255667288 -0.0146527453467068
0.0157978228030029 0.0153213324582394 0.0513906373444985 0.00280102838129201
-0.028557203746248 -0.0132355975449807 -0.0274429864441941 -0.00342341144390846
-0.00155451566687072 -0.00441142861728374 0.0209924175148627 -0.0133878869634834
-0.0149166251969458 -0.0149305942410793 -0.0118369364709079 -0.00649290913526908
-0.000932625276258555 0.0461851954830869 -0.00280853000808618 0.0544887536511294
0.0259189891482187 -0.00280778129069513 -0.0244191172587508 0.0147625952145326
0.0101179017076372 0.0219247924167238 -0.0143848193106144 0.00998402818314027
-0.0116567029672642 -0.0106873629853095 0.0280036974452945 -0.0116798391891001
0.0138904479867373 0.0372486821626555 -0.0274355041504826 -0.0247896622927593
-0.00807855779347728 0.013437150772044 0.0016546206994509 -0.00341656546903264
0.0152513979496877 -0.00537578063523427 0.0191318959185349 -0.0160925176536979
0.0133055383387488 0.0111328502308446 0.0387069953972426 0.0175229411005706
0.0199146627134152 0.0128259276253863 0.0239434319517342 -0.0011911296539217
-0.0334260373193218 0.0160144707866667 -0.00711906733131278 0.000545096297475465
-0.0211251056675348 0.0056217133627983 -0.000621972304190345 -0.0220385186647687
-0.000607215454841226 0.0288971162115747 -0.024923287692985 -0.0144066778924779
0.0153592500287524 0.0219958897581881 -0.00206055885954792 -0.0267626938916525
-0.0185976411781032 -0.0116649592199619 0.0256417875704186 0.0454898162840803
-0.00549005709474027 0.0117013058417948 -0.0123876687631872 0.0119403635050709
-0.0316552555032841 -0.00492597809991225 0.00713034442363291 0.0222906989498731
0.0279056343469002 0.0176586752834884 0.0154121016016906 -0.00815370828001121
-0.0215523174010753 -0.00969726269598864 -0.000263473855714222 0.0175013587275225
0.0101823639028417 0.0153328695830862 0.000804262215998544 -0.0106045028292217
-0.0173755349390581 -0.00104465542364671 0.00507933549599454 -0.033046519586187
-0.0049327083309001 0.013428062333701 -0.00568390687684742 0.0107194618969435
0.0337821760624608 0.00476692415038064 0.0150728181754642 -0.0157562589915636
0.00275606567964532 -0.0282644988378183 0.0107168041716464 -0.0111427301883261
0.00203102891447301 0.00829659597167974 -0.0167014212405738 0.0228519027565499
0.0213686656156121 0.00722989263724741 -0.0533704315843821 0.0181935876780355
-0.0258231854240067 -0.000399696952896589 -0.0547014939549412 -0.00897556627898786
0.0170725323209211 0.0190343021128735 0.00847341863807312 0.00486270549610954
0.0179516812427463 -0.0176939792737377 0.00649513029668712 0.012760699084909
-0.0220376364877428 -0.00172663613118065 -0.00315377022304959 0.0135041384178661
0.0317524162265645 -0.0207639790277492 -0.00195537644710726 0.000941583736791519
0.00337207830710999 0.0368978226421113 0.00503544954992059 -0.0132752749555234
0.00539123261837109 -0.00590663599529506 0.00438775064626167 -0.00912265480502442
0.0149538980249758 0.00646346040094387 0.0125352955307914 0.0141766276163716
-0.00199790834743796 0.0215505910269271 -0.0166834773716619 0.00264878607283408
0.0105948685748409 0.0126524817367537 0.0174320454911436 -0.0114113117621449
-0.0148549749675151 -0.00229445902671696 0.00500060934088352 -0.00815461341762448
0.00885276628265918 0.0213133201187821 -0.014137182607345 0.00786012894246389
-0.0366288529616026 -0.0197229242941522 0.0147441856925398 0.00502727459979896
-0.0318757326975508 0.041417968504275 -0.0146040844961949 0.0216023433109703
0.0197267101110639 0.00780939278570254 0.0237919509669111 -0.0180297038979481
-0.0518871903923738 0.0198371846080963 -0.0104597407808784 -0.0382467556396113
-0.0396565245104343 0.0249197333183087 0.0105858769853291 -0.00883065378273301
-0.0422526746172952 -0.0154141110574655 0.0254151969921385 -0.0383788511492739
0.0189657684797771 0.000645115744366694 0.019390300544653 -0.00126156090944671
-0.0321405487775477 -0.0147100141322749 -0.0220126425878606 -0.0339119392852719
-0.0134894692724583 -0.00990383096446877 -0.00786825568473337 0.026726338162069
0.00490225735520764 -0.000118097582677635 -0.0236741930852904 0.00625088622396727
0.0143913495985208 0.0399547563341787 -0.00995906093501737 -0.0104788315754753
0.0153473695781916 0.0163106441029561 0.00207625641359272 0.0411241916562756
0.0182505796936256 -0.00687693284841199 -0.01879313489528 0.0114136860635415
-0.0415937393485318 -0.027392376842426 -0.00304749877613697 0.00229268947613858
-0.00697797934704407 -0.0156625280081987 0.00243056546740165 -0.0323465993305949
-0.0216109232509106 -0.0126967213620663 -0.0193759172199318 0.0290993882660883
0.0290929720236813 0.0438921025972248 0.0230248133963031 0.0233611930670412
-0.0140951973619872 0.0174495250442356 -0.0153276541521452 0.0282784206056147
0.00791244548051437 0.0140149983639967 0.00128027774900754 -0.0157929426991041
0.0110478262569967 -0.00452836772936669 -0.00115211503013135 -0.00140211373823711
-0.0131640677568284 -0.0253773407060105 0.0131633713619661 -0.0330675354453814
-0.0303385501116844 -0.00849924540535201 0.00428742672526585 0.0244959672620507
0.0147974665444397 0.032090027202481 -0.017676492171204 -0.025389790008003
0.0194962666010904 -0.000674217218619904 0.0402970920294171 -0.0057894189860139
0.0293750344742095 -0.00621164695747367 -0.00541550072159546 -0.0180271625965885
-0.0161794587364331 -0.0333327508540872 -0.0383913255503491 0.0115077049987422
0.0160807239898318 -0.0267910385250051 -0.0161894219649894 -0.0221217580945444
0.0244945681061261 0.0251445890165398 0.00990100640216646 -0.000741100971869659
0.0115761876115078 0.02009836994511 -0.0147422632235226 -0.0278244881486511
-0.0496808062180359 0.0171181141594926 -0.00656976948645917 -0.00990986088154073
-0.00575331956846135 0.060420692517737 0.0185529600462863 0.00705986806080425
-0.00859081186716695 -0.0217502340000568 0.01725602410931 0.0234249507956655
0.00801153654997827 0.0314849123862278 -0.0592776224541269 0.0243076788132995
0.00735097000311423 -0.0334587753434927 -0.0205286995265305 -0.021592720697971
-0.0324625912411421 0.0319510920598223 0.0141893110723325 -8.6826470501277e-05
0.0142686915083118 0.0225648904918301 -0.00241743882531907 0.0061192485403534
-0.0500174424657826 0.0153739408725648 0.00925658583197563 -0.0276498219536732
-0.0198602990787177 0.000182303291736591 -0.0100444077563818 -0.0104029482917604
-0.0135469281577146 0.0103650335114187 0.0111640733939034 -0.0179966665217093
0.00292467296756419 0.0297028071862582 -0.0217152642448732 -0.0200854538267084
-0.0135960303016716 -0.00330790572200185 0.00614889894826329 -0.00610362140595032
-0.00812141519735269 -0.00438714303484555 -0.0106185329563945 -0.0314402084370937
-0.0103890781115719 0.0672353807546981 -0.00895905420777929 -0.0182082418248707
0.0277616747517723 0.0366393629298508 -0.000638787811495969 -0.0152199908614611
-0.0164993431984069 0.0382216053142835 -0.0150067804639906 -0.0108899119802199
-0.0301288867962946 -0.0136634515198106 0.0234439969702832 -0.0234640642857726
-0.0104536114398332 -0.0177051516906393 -0.0350929122986189 -0.00285610152314646
-0.032843699144674 -0.000981478244128639 0.000102034150629267 0.0021525161515834
-0.00945173970888227 0.0181781474325155 -0.000722937158798665 -0.0183450741442305
-0.00950217432400337 -0.0263867984767416 -0.0259964227141869 -0.00736125191717926
-0.0226707752888194 -0.00696591199884031 -0.0414468376425043 0.00365437040987383
-0.0132179965338947 -0.0155303675805175 0.0297157131701477 -0.019694733286089
-0.0277775182557566 0.0215367451742421 0.00875642845382494 -0.0294379023666766
-0.0065197201919691 -0.0124895676583572 0.0358414413420993 0.00939073130377236
-0.0422510639128727 0.00700879810321809 -0.0216755850984361 0.0141864994591727
-0.00345359053017356 -0.00842736968109799 0.015267301444966 0.0293252585725926
-0.0183204508109075 -0.00101739513196491 -0.012265653925371 0.034783816691066
-0.0138843745844484 -0.0210338568872389 -0.0308506902882008 0.0122139105819692
0.0161130560648575 0.0101356970083584 0.00881523493238087 -0.00687027926128577
-0.0209337169343281 -0.0109071420251583 -0.00138910839113175 -0.0052507231256907
0.0119874692101624 -0.00773868651876122 -0.0128398650587336 -0.00186351360718289
0.0121583196045148 0.0537470166215458 -0.0123621850669973 0.00865610295766298
-2.29983429989253e-05 0.00268754871584639 -0.00800857850633303 0.0380735184921468
-0.00765670140175425 -0.0167714700974374 -0.0207251091331512 0.0735603211099535
0.01581346388625 0.00317207682215112 0.0145674087167545 -0.0145646664610707
0.00687088177610365 0.0218373940419567 -0.00491216800706507 -0.0303372852029085
0.0174533992355325 -0.00861080340736143 0.0119596519848313 -0.0103338919391208
0.0160587385169008 0.0222820149941317 0.00905499063063292 0.0339749079799467
-0.0123361059317817 -0.00225674563767616 0.0218901033584306 0.014936965648412
0.00596033491443489 0.0159694005842684 0.0173662980137486 0.0014320035585206
-0.00838038709977166 -0.0280639801339436 -0.0329363015826655 -0.0318827207332841
-0.021784141280991 -0.00993677451374256 0.00687395157709086 -0.0286934019334427
0.015731734519686 0.0338862553928518 -0.0358062084048904 0.0052888356244025
0.00210276855705304 -0.00674165197288217 -0.019348399653768 0.0441858047749087
-0.00945918796653013 0.00464004675072119 0.00231438928182474 0.015831404145523
-0.0494150654622279 0.0148207194166593 -0.0143786893950019 0.0280527862912609
0.024137058271115 -0.00151249084216278 0.00485298779306317 -0.00930006389182928
0.00256719192790917 0.0115200184292838 -0.0110506741971359 0.0315008837691772
-0.0226701517323022 -0.0123820389566523 -0.0099281282670405 -0.00739961870906852
0.0222029202958953 0.0377333271751006 0.0117358621574285 -0.00224564586404679
-0.0132477806900792 0.0312312178219774 0.00563080040091389 -0.0335403160993292
0.0101782567417815 0.009009923068262 -0.0234054052414865 -0.0174033840513376
-0.022706441213303 0.0146618803887053 -0.00923096704230039 -0.00562879491269811
-0.00705147194511923 0.0034555090621731 -0.0111740997280978 0.03717503282608
0.00207960033581125 -0.00646325313536077 -0.0274254515578033 -0.0019848661684589
0.016941847960018 0.0201608868497627 -0.0177274671075241 0.0056781431546825
-0.025257990797092 -0.00625053889324678 0.0176985087423228 0.0158367972986629
-0.0173627342196657 0.0107451167941226 0.0127358146298744 -0.0381188978359331
-0.009689733528293 0.0561971205156062 0.0144092456674341 -0.011244096379955
0.0137750837415378 0.0154777571004261 0.0142198641141163 -0.0128153418257182
-0.0269470306203809 -0.00565929062350816 0.000302772751203648 -0.0436182453433381
-0.00856871875507797 0.00908989579550549 0.0186292872910981 0.0108480894113022
-0.00929300715186509 0.0118443871644099 0.0155185792307717 0.00546112178331233
0.000269531560073224 -0.00311950549328469 -0.000527247904241813 0.00503275857702421
-0.0275204856064529 0.0317821859398008 0.0328936225700542 0.00503541079814795
-0.00321321081150301 -0.0141529622611236 0.00917839407468434 0.0281679554566385
-0.00103891105082585 -0.0244520640284679 -0.021104025176387 -0.0162435158814127
0.0242184790675037 0.000918988621180178 -0.00727213032642961 -0.00416100673774766
-0.0177741086672468 -0.0096349053621351 0.00814624045727373 0.0233405925720702
-0.00329691607031792 0.0019844377360805 0.0316396063936277 -0.0013067249450509
-0.0384506059194068 0.0141595534726204 -0.0101486094615598 -0.0413245512809037
-0.0140943774218976 -0.0168163456720502 -0.00464143671897163 -0.00131404697306507
0.0262665101448728 0.0291058130237596 0.0289843381302512 0.00208020288379109
-0.0412613874215431 0.0190955850357066 -0.00903668388367788 -0.0220582687498106
-0.0318899217154756 -0.00844060838784873 -0.00267974144925548 -5.13208566396175e-05
-0.0152776651623416 0.0153170556725994 0.040373971850177 0.016566443277852
0.0303253466243565 0.0141842095823637 0.00285754746696342 0.00464896596394872
0.00647842490147944 -0.0297832533138948 -0.00897918173090871 1.52202283140768e-05
-0.00478188058791463 0.0315450686295773 -0.0349931339583602 0.032451722458007
0.000338506118089637 -0.0160639184520066 -0.0299874455178305 0.0108777985449865
4.1756001312066e-05 -0.00960280296463369 0.0341271869711439 0.000497121187476669
-0.0284683815504347 -0.0192203352757093 -0.0201701567938777 -0.0232199544317024
0.0184957410986711 0.00270606949627178 0.0265226160074394 0.0109299949440446
0.00459674298541142 0.00559552536940121 0.00743344849314057 -0.00748950838042009
0.0109692845377849 0.0550269959315859 -0.00213182553648108 -0.0106731139357432
-0.0319268538141167 -0.0197872339645064 -0.0291524781501076 0.00757125809333458
0.0261117704330268 -0.0165669639895704 -0.0191240948203312 0.0152091875315183
-0.00748771143719356 0.0220817900204592 -0.00322766498302173 -0.00183331286190036
-0.0127527037473425 0.00986512526763977 0.043262018996449 0.0010785064396454
-0.0413974184795309 0.0391657967357384 -0.0117553946964705 -0.032911043160201
-0.0185257121568466 -0.0121941451324386 -0.0207162197668656 -0.0290392532584416
-0.012812811130593 -0.00325547998908386 -0.0315545109722162 -0.0156146847210818
0.00827219821135761 -0.0108183705138279 -0.0376394659535456 0.00576982134658942
-0.0352954458980178 0.0437129979279403 0.0160148748760961 0.020497751471977
-0.0119874746336286 0.000392022583460628 0.00168024614753904 0.0181881905218412
-0.0178247741486801 0.00422046255355176 -0.00254881254833835 0.00365120790693772
0.00700143908521339 0.00585577972167716 0.0106485514032826 0.0364705380038238
0.00358965201436788 0.0135312557462734 0.0186339297190868 -0.00589906609524012
0.00487797976398105 0.012251333650704 0.0370091466241175 0.00411227874186737
0.0146651547143483 0.00542699969930085 0.0219882184128436 -0.00595519623282145
0.00822516400779048 -0.00760980521395802 0.0213957035906272 -0.0101914594505868
0.0253357315982652 -0.011226801697589 -0.0171837915542702 -0.0194286034897246
-0.0135333249553995 0.0286292236799545 0.0152619103141258 -0.00526609226476494
0.0142008463620066 0.0132953968186841 -0.0168899669611594 -0.0176111744915367
0.0130884434887617 -0.0151292293180637 -0.0162092298996042 -0.00795278937676818
-0.00762008015401635 0.0344351750413467 0.00830814544607738 0.0248603937311826
-0.0159232941478384 -0.015287672113962 -0.0174281795957711 -0.0206412917205758
0.025012486572439 -0.0118215041311865 0.00391205867004254 -0.00313881223362394
-0.0116239756283232 -0.0136372237880225 -0.000987327356235625 0.0268073071627927
0.03900432800098 -0.0188397220126785 -0.0252173137934899 -0.0160503134681803
0.00609198481392257 0.00226560141534637 -0.00240667429062293 0.0413790331237585
0.0218518790608102 -0.00569340615161672 0.0114264757572968 -0.00619734690933305
-0.000659370852387485 -0.018875342614899 0.027429342948925 -0.0203550860362167
-0.0133088280683095 0.0111381137402893 -0.0114886005547345 0.00443887882675097
0.00735418246543429 -0.0251642634481924 -0.0292060201533508 -0.016661154936331
0.00168987931330658 -0.0197717914642183 0.0142763732878625 0.021582610758316
1.72185368790656e-06 -0.000840029151469929 0.0272966995893981 0.00591109072164911
0.00624802178363362 0.0432521999176101 0.0223086257436778 -0.0121812583738603
0.0163626337023753 0.0029155337946001 0.00651380766808865 0.0375072697410412
-0.0149743116851818 -0.00339670634118495 -0.0482198430341974 -0.0065935336855937
0.0183265200839171 -0.0173099360536125 -7.30257872564308e-05 0.015168612156366
-0.0491674441825496 -0.00692759458254193 -0.0202765355339502 -0.0331338621334596
-0.0506105105831276 -0.0275741057891131 0.0325191154258074 -0.00554421040578192
-0.0124624516623718 0.0429644931175421 0.00343607656162401 0.025844123927194
0.0386543080855978 0.00143766117146027 -0.000525308668497405 -0.0173474721659508
-0.00509757760968491 0.0162138453416669 0.0287371971083906 0.00175644723173964
-0.0216809384762569 -0.0179857857526537 0.0137114357719223 -0.0023403887939743
0.00530400612892598 -0.0103395893845403 0.00073067861583857 -0.00484018533115758
0.0298710446975444 0.0344750217587464 -0.0032474783991405 -0.00407424579172434
-0.031308531511602 -0.0128987615002177 0.0126497764741261 -0.0122208205887526
-0.028415248100359 0.0262815533653497 -0.00279850533383068 0.00662692993857609
-0.0246180494004165 -0.01235537507877 -0.00475938517316351 -0.00198527276419068
0.0025635030953232 0.0255465649914334 -0.0313154678861614 0.00475273069965833
-0.00852403181707532 0.0282862672647348 0.035846530616612 -0.0207469306133199
-0.00414204163493595 0.0285033117447623 -0.011658404713053 -0.0309930967173334
-0.0270803830800143 0.0195511421591955 -0.0324766869831808 0.0176059935046884
0.0205029861524386 -0.00841636578840202 -0.00370201512544876 -0.00559576763173425
-0.015687903902157 0.00551105883726307 0.00363042851046631 -0.010635567258638
0.00341247558464855 -0.0150265806558282 -0.012033592439127 0.0315019225216
0.0155416391307837 -0.00324725859707692 0.00705911039598674 -0.004561941776719
0.0201326174428298 0.0243475326471423 -0.0538223353765364 0.0124396510075399
-0.00241650020606828 0.0180475884045883 0.0143468881727615 -0.0231909174653188
0.00847150078911941 0.00534468984665323 -0.000946069841947477 0.0517606080477854
0.00422699876206578 -0.000769959352155742 -0.0212917455195862 -0.0173986740592976
0.0065137641213381 0.0329514140344236 -0.0191551680456075 -0.0290605087650679
-0.0299971664163888 -0.0160152069079227 0.0207433761571683 -0.0308137992187309
0.012182673050949 -0.00115981598648287 0.0255076893188408 -0.00254595117327204
-0.0425728598010887 0.00609804421776829 0.00882818907226066 0.0285664859873864
-0.0172498980943977 0.0109536649531087 -0.0147587735989358 -0.022719780095008
-0.0192719233191535 0.0230732061507179 0.0202092120749269 -0.0198261254569489
0.0169184561911578 -0.00551246673126654 0.00421395155047904 0.0319712034072978
-0.0103398760874946 0.0166038496555672 -0.00840940452046954 0.0330389047572375
-0.011560762816729 0.010560683983398 -0.0354850596019969 -0.00896226937229548
-0.0158968261295461 0.0285351493201965 0.0044869195017339 -0.0295086668885849
0.0106532834182284 -0.0137094450324746 -0.00377552685985818 -0.0230094123820041
0.0120493356147602 0.012231979122409 -0.00405193511340573 0.00108856485644407
0.0207566704344637 -0.0142661773448768 0.0202988002951113 -0.00124179126348945
-0.0189174347646942 -0.0218801796898708 0.00923349969481433 -0.0066356008723982
-0.0284207571907832 0.000456510835275701 -0.0111353102706231 -0.00841289506480763
-0.00389550170189363 -0.0272011265660146 0.00341509953111477 -0.0254990142008043
-0.0157164199425642 0.010208077829831 0.00681751387649839 0.00525721611879112
0.00973320673470818 -0.00354733505906163 0.0122581383485236 -0.0311771523199041
-0.0244797849070183 -0.0279908771751375 -0.0157739632752998 0.00935609998125439
-0.0124199256699599 0.00138652693098791 -0.0279362948886727 0.00980066176412287
-0.0195358857495667 0.00793648482126427 -0.0208414912188392 -0.000477048256225538
-0.00962056226556924 -0.0151606171881709 -0.0332566183451361 0.00682319411317221
-0.0119267289913535 -0.0196500670174139 -0.0125131249204934 0.0200172988847511
-0.0108054051662638 -0.00065117229771548 -0.0361177409012723 -0.0388575023012007
-0.038832517851212 -0.0220513746884507 -0.00360492617851775 -0.0154504622724248
-0.0185152790335299 -0.0185667465228735 0.00155961454703475 -0.0244432595950442
-0.0434337188036813 -0.016602140058675 -0.0134963510740011 -0.0501452263678685
-0.00942054667901379 0.00570462210196953 0.011050479642587 0.0120574424289194
-0.00985600980706094 -0.0015122833494907 -0.0218464281532267 0.00990787611821736
-0.0193184104334846 -0.0257402183588439 -0.00305832791647177 -0.0146227794039441
-0.0491175034233634 0.00261660654568553 0.0406221264725893 0.0399133511039958
-0.0185013965682169 -0.0148154530578345 0.00140590013272527 0.0338047440491071
0.0334096818825761 0.00834267350966257 0.00240646802524287 -0.00768826022095724
0.021004569035137 0.0098249602857514 0.0121713047863587 -0.00728934506720799
-0.027863299773981 -0.0149306643894382 0.0212844406306177 -0.0304040587057253
0.0169910392040296 -0.00659982154629291 0.0101479990544324 0.0325603467129232
-0.0132731686056871 -0.034925299555082 -0.000857960019188896 -0.00386183948867482
-0.0252746527661085 0.00460585707507104 -0.00489801786749509 -0.000554274816403051
-0.0198649819750836 -0.0122493310235995 0.0124785419066158 -0.0218069044477739
-0.01950973683153 0.04072395601127 -0.0140141908312303 -0.0142129652303499
0.0107780416122036 -0.0018273165645656 -0.00389861337843962 0.0305396612352705
-0.0222061179165644 0.0230653727430959 -0.0288464171137875 0.0230080902436364
-0.0142117111354813 -0.0210543587928338 0.00379107247751814 -0.02568244181147
-0.0238285506437637 -0.0194601938652214 0.0200624895112434 0.00540335419586346
0.00121942329997494 -0.0141788667823577 -0.0329997908934849 -0.0165110127718558
-0.00665972163425133 -0.0232436055314187 -0.00795544757705998 -0.0307842691918676
-0.033757588536513 0.0499436981041218 0.000669699345547034 -0.0179612599577087
-0.0447159365572672 0.0228403050965327 0.02383860069751 -0.000556601643000575
-0.037494105134639 0.00685953499342227 0.0118434700593863 0.00701777484636369
-0.00154529101305377 0.0421072249937756 -0.00296767665402287 -0.0135175165919464
-0.035878121355386 0.0370004084467354 0.00220539962778556 0.018471924300288
-0.00275658198934004 0.010298428497391 0.0252268533950402 -0.0151461502285228
0.00754292080549528 0.0571514739008704 -0.000503032936276369 0.017524224593899
-0.0394044806903088 -0.0239103809878884 -0.0241360984520594 -0.0405323189430825
-0.00302134797932706 0.0269435921322889 0.00328595290519104 -0.0113603809728379
0.000691655644854021 0.00573449647064148 0.0110811809097579 0.0145704574304663
0.0217587045347498 0.00450300371142466 -0.0465902098161787 -0.0206633189320567
-0.00954815184729392 0.0124495600874792 0.0196596344808225 -0.0251846322547548
-0.0396475507844957 -0.0117931234184565 0.00410341134005831 -0.00504860579703238
-0.0131335536484981 -0.0249399002169365 -0.0123871304654817 -0.0163056728705467
0.0311061566297391 -0.00306742459834409 0.00724894718457545 -0.0170985182144256
-0.00512392412044578 -0.0182530608324912 0.0063712496763671 0.0126324340158543
-0.0159394428997643 -0.00899837721248264 -0.0239633720162098 0.00877135943318394
-0.0305320016968589 0.0534474403611691 -0.035463507973892 0.00198234538331456
0.0108487679226794 0.0246902026719538 -0.0178278196846875 -0.0207706627304036
0.00633536305920004 -0.00893492626568945 0.00554788137547665 -0.00235445402772122
-0.0349481098634226 -0.0234864487069896 0.0137996974324865 -0.025346533793498
-0.0178070433407701 -0.0138666019357468 -0.0115231771661879 0.0174180761558499
-0.0121186349222501 0.00624953412984922 0.000368555216277908 0.000553761694721361
0.00172033592038957 -0.0155529288956004 -0.0308691897651376 -0.0186347980235426
-0.0377954359976658 0.0154703458893413 -0.00185648749163161 0.0147523549385951
-0.0122435797361336 0.0363167421028412 -0.00432195497130121 -0.0199249763855158
-0.000702392185134261 -0.0162851984700493 0.00904636461624075 -0.00167996107523173
-0.0428022078122252 0.0135512580722145 0.00651015172339388 -0.0136861234207527
-0.0280147137038974 -0.0174931749580836 -0.00663818702257903 -0.0205671748326105
0.00758999685493438 0.0199422617995164 0.0116991074157507 -0.00375204509894511
-0.0104724747218082 0.0103828191512387 0.0363554276982157 0.012849937048288
-0.0147850308404086 0.00330485948587411 0.00505052535805436 -0.00582145045134051
-0.0330234358611785 -0.0201620912544884 0.0181136267031574 0.00856624398504508
0.0190073312046439 -0.00245364835343662 -0.0154195621192649 0.0200862254329045
0.019759605332441 -0.0134582387003473 -0.0085526922478707 -0.0110135898222
-0.00884491975682251 0.00867345175409447 -0.0379748787343578 0.00081798476822168
-0.00882607502795318 0.0249391573912296 0.0236934389948354 -0.0219800730378127
-0.035735386748927 -0.00899833919990713 -0.0309871215139572 0.034497001484213
0.000475382519553109 0.0288129895956658 -0.0111070855851196 0.00375677095173447
-0.031580328786289 -0.00255649749698406 0.0208955385136541 -0.0173371134443438
0.0100054462403648 0.00474795882630689 0.00878644457004144 -0.0164129545461403
-0.0265311450864983 -0.0109434136953274 -0.00308942539285351 -0.0040866938648411
-0.0155678159178062 0.0125818699396431 0.03477820877388 -0.00921385520448042
-0.000856867847568793 -0.0171046813271452 0.034906269616942 0.00492399699889923
-0.0364792403267184 0.0152665017107457 -0.00699835879582875 -0.0242508417632012
0.0047486605886253 -0.0196659033391027 0.0288267979744636 -0.0112305788094168
-0.00458769982247654 -0.015815745401397 -0.010097930045448 0.0261426105144421
-0.00307082138384068 -0.0131805776981032 0.00204048712228401 -0.0207406232865644
-0.021953731657937 0.00181423334883037 -0.013386573278988 -0.00738254099354325
-0.0175428887547142 -0.00617853655536605 -0.0206113133786278 0.00481482679443471
-0.00878618620934958 -0.0042890308698515 0.000897533518976457 -0.0095644109843307
-0.00833873797389562 -0.0142472690975299 0.0063052398970667 -0.000742404611341453
-0.0123223181647634 0.00742447181705344 -0.0291477746326906 -0.00287591497326301
-0.0351060292395347 0.0318212884084393 0.0208210972408501 0.00825255130057101
-0.018031378181402 -0.0312012126159637 -0.0208348882009696 -0.0186623547999382
0.00938350903457149 0.0218952839149391 -0.00683737824302834 -0.00768258120697155
-0.0304727043037888 -0.0179455830607123 -0.0134758006799725 0.00718043093765495
-0.0123175422090194 0.00803516650651811 -0.0271304290683068 -0.0395141580603695
-0.0127642241276041 0.0297148753010743 -0.00882106052790693 -0.0212287877500736
-0.00276624283553433 -0.030489088618169 0.0158323091509756 -0.014857181147674
0.0076356956324759 -0.0195496027336228 -0.00351724474329816 0.00942436048367084
0.0122653409401957 0.00423469799686719 0.0211893322116727 -0.00626895967247455
-0.0529278371593046 0.0115951956892082 -0.00334644649459402 -0.0145240976409065
0.0119428171567968 -0.0125330788007432 0.0192674646909248 -0.0150189385637816
0.0072056663352128 0.00214276898167404 -0.00705272487637327 0.00806616744859447
-0.00750008409562165 0.00971203632403831 -0.007008893052081 -0.00438458307248547
0.021820756654443 0.0276738149923336 0.00930395107055416 -0.00562367682049501
0.0230414147106005 0.0346125030453313 -0.00912581393480975 -0.0114968614729897
0.0195911491227355 -0.00433833051259805 -0.0126921616330192 -0.00425340246850229
-0.0165289486241315 0.02570773236116 -0.0174625801280932 0.0329073536226121
-0.0239082808570618 -0.0225684432811956 -0.0129918960836527 0.0415020648897116
-0.0295600582866427 -0.0201456919219351 -0.0204756904811039 -0.00661901119162897
-0.035501938285654 0.0166027805368788 0.0128731416494537 -0.0210467449811013
0.00754798795056499 0.0371100381971087 0.00195531215495714 -0.00896234378019872
-0.0336206291755908 -0.036546930014154 0.0050330233018307 -0.0265186716398807
0.0164538194764853 -0.01107998779149 -0.00564917875487198 -0.0165948902437855
-0.0143234316197907 0.0137094071017074 0.00852538504136502 0.0130909088453437
-0.0438733761607279 -0.0229925096684777 0.00202103226341258 0.000976989774912699
-0.044081240979833 -0.00580513012259391 0.021625137209382 0.00714569952490629
-0.0315745908548206 -0.00234042767624742 0.0116955439365828 -0.0174035161683422
-0.044322733821441 -0.00387920380279152 -0.00129087830497415 -0.00435625208804102
-0.023751610813822 0.0180127422768819 -0.00201521479359729 -0.0248184342039387
0.0363994978407385 -0.0136138947844819 -0.0053408585942537 -0.00338737712343483
0.0146150494882872 0.00640216125642059 -0.004990417263483 -0.0112937432291722
-0.0247153359756016 0.0298400787890152 -0.01439054697356 0.0259632306290889
-0.010502647239793 -0.005637675401946 -0.0120907974908431 -0.0266063054214772
0.0153470259963737 0.03317809006539 0.0175799868152835 -0.00200914148373003
0.00902138699661957 0.00439549850357635 -0.0029243532946389 0.0250209622306649
0.000423762379139957 0.0229737539457385 -0.0191172753500778 -0.00125801465883599
0.0090801211435129 -0.0291761680000523 0.00973774790732554 0.010903551981239
0.020726193049089 0.013232686279512 0.0236602548871713 -0.00349363863215101
-0.0133578933976072 -0.0125014711719706 -0.0327868740409659 0.033993662515693
0.0119528578291702 0.0477824076903271 0.0398028156196573 0.00372670356376661
0.0260674565820416 0.0356912941716433 0.0384211958454701 0.00945628715349877
0.0125094455861919 0.00801624315509624 -0.00693259895830721 -0.00464294240648872
-0.0106377340579586 -0.0277444052035131 0.0027320112448433 0.0252344733637985
0.0112835678376058 0.00801035547622435 -0.00733987879612437 0.00446410538055199
0.00427060482785622 0.00159993940961788 -0.0271628282236002 -0.00770538052879766
0.0127453248289316 0.00330315628692961 0.010694907365086 0.0475212807015524
0.0163481410404959 0.0153764829269539 0.00504484329830545 0.0187105672625388
0.0168260787854845 0.0257422324530686 -0.0335689474227633 0.0193258349660178
-0.0196235761568463 -0.0109930365226911 -0.00389532056624255 0.0140197159694731
0.0104623403368394 -0.0115919209795771 -0.011415734067133 0.0178549864280383
-0.00781841484795489 0.0399316112184693 -0.0121616838894378 0.0449824228676749
0.000510410998573934 0.0243551488871085 -0.00350035079793179 -0.0220952566808995
-0.034209114047879 -0.0201630325279856 0.00543415501656036 -0.0468262076067214
-0.00595619074555088 0.00810632681055476 -0.0114287433246759 -0.0303608270504902
-0.0150264341985559 0.0522264291268523 -0.0242744525761998 -0.0172653207242488
-0.00936043432466628 -0.026816304295292 -0.0168390223808456 0.0458318983539197
0.019372051846457 0.0560429545431549 -0.0218973145528345 -0.0221969404540541
0.00516451654632222 0.022608604413802 -0.0203574972781699 0.0256593955202133
0.0247110096752079 0.000121918091239806 -6.42398615942323e-05 -0.0238185447303386
-0.00899975489585703 0.000965863477452881 -0.00792129393582515 -0.0258993481824959
0.0228373661043571 0.0154820629502818 0.0300598160274752 0.0149274384333154
-0.00789723662974391 0.00659218841902159 -0.023655432317873 -0.027461555642921
0.0291000219557889 0.00153384107650514 0.00647775154351574 -0.0163617175862171
0.0148710327930735 0.0157877952709882 -0.00714268735515281 -0.022993201480849
-0.00131202658358773 0.0176870613504987 -0.0224988397689366 -0.0167345467627115
-0.000664020000263338 -0.00895409759704116 -0.00656289294589611 -0.0257644343227743
-0.0400296040368626 -0.00561529405002888 0.0193824897163951 0.00370845657357604
0.00284131216344239 -0.0112535214521294 0.0123111169160444 -0.0146984032589303
-0.0233336884465903 0.0117041471857113 -0.00580280918530977 0.0117094936457716
0.00740643983402479 0.0207111148610839 -0.0377487307062296 -0.0102621278827016
-0.0106926693388444 0.0079168480374338 0.0288186547013012 0.0179581354266632
-0.013552773590028 -0.00542798028973643 -0.0287537192451861 0.052491951241423
-0.0106044047045261 -0.00465481571561703 -0.00897469029105011 0.00728670855337422
-0.0434608351731783 -0.00240959395011472 0.0288995079290563 -0.00597902154531629
0.000853696802863339 0.0178661924953167 -0.0421293835509166 0.000905556126323575
-0.0443934523382592 0.025188005076958 -0.0143041190074537 0.042387106983423
-0.0311973268819646 -0.00295613220924611 -0.0188301463592844 0.00937805498955289
0.00289066010232918 0.0568373419146261 0.00337141784774398 0.0111026216711559
-0.0164438319430052 -0.000768397696593075 0.0140518093348361 -0.00941254728713759
-0.000106730220852606 -0.0052838071179414 0.0319626974920014 -0.0200459567974983
-0.0298228904413629 0.0510016269073612 0.000317674277456486 0.0341322152078751
0.0121980794763957 0.0370682753973443 -0.0151365154873854 0.0127870833321428
0.0276004227392845 -0.00304242021446798 0.0135967886577311 -0.0151905543611612
0.00532910609420318 -0.016609820804674 -0.0216488220484589 -0.0144211316917708
-0.0191771877503861 -0.0206278050400697 -0.0269161040867729 0.025099420462183
-0.0168296437210903 0.0257432236536651 0.0313888827943077 0.000230954073737285
-0.00424018762947304 0.00678415812756006 0.0161927315157725 0.00174641357878377
-0.0201184834742998 0.0260724798030651 -0.0268035711226997 0.0149360442856008
-0.0154889694953894 0.0141555337626729 -0.0166282785388493 0.0163929888733962
-0.00244930523509022 -0.0146506219727159 0.020917179371199 -0.0108103505611145
-0.0229848248290038 0.0163754866682387 0.0126140228806805 -0.00788835877564042
0.0195432702749695 -0.0129077815290641 -0.00117816387349682 0.00346629677087477
-0.00592950596106205 0.0124740696631362 -0.0110060812096924 -0.0350225829132408
-0.0247455809954449 0.013958547241505 0.0173465675342623 0.0596382471843442
-0.000906952357070809 0.00244288572161846 0.00910497412160904 0.0139068769528347
-0.0115511786314178 0.00926484146457828 0.0101868903405345 -0.00336222111652949
-0.0149616778265194 0.0115110100465886 -0.017459651637531 0.013896907766902
-0.0347866764500534 -0.0141888388095722 0.0259659596321467 -0.0180557620818212
0.0246005684542712 -0.0104217499046034 -0.00429879471354745 -0.0292438122847763
-0.0164349863484022 -0.00538695417784367 -0.00618898523251298 -0.000682106855221101
0.0305059953623804 -0.00413390811103715 0.0258291989891445 0.00362623930715709
0.0142069844984467 0.0117069433037197 0.0344834406844957 -0.0118226066941872
0.0151364753189871 0.0213178447112138 -0.00746047803243127 -0.00515875664680196
0.00560972859175203 0.0149725282818678 0.00526660102537595 -0.0224537396315002
-0.0331158043751096 0.0272613597953805 0.0142541956860605 -0.0302456698598424
0.00443254328159648 -0.00340771231772443 0.00196785684462213 -0.00826343892519089
0.0161558427657452 0.00302734299552686 -0.017402833149447 -0.0245105236689086
0.0343788244353183 -0.00855790762455789 -0.021580507990001 -0.00777943488975119
0.0273708407847065 0.00977307181623782 0.0301303096176109 0.00346217960787282
-0.007368001928282 0.0538012455062244 -0.0369796071623393 -0.00852025481566178
0.00592302718715012 0.00507834714935345 -0.0130536847821069 0.028118016963329
-0.00690331262687686 0.0276569105859631 0.0444524080831333 0.00253183120415216
0.0179629636708432 0.0455538384640548 0.0109511478311267 -0.00311816616652044
0.0213970415318822 -0.00245735210659848 0.0115424365502198 -0.00654809747411759
0.0258833158711861 -0.0292120766200886 -0.00188926472504421 -0.0179403987381329
0.010335411493344 0.00706304914319393 -0.0265147413981177 -0.0131560211321758
0.0188463624331548 -0.00667368039756958 -0.0156420795209428 0.0332154572709568
0.0101558352954108 -0.0207341740106907 0.0170573836337571 0.0249435448539045
-0.0117584374338097 0.00162597467245748 -0.00868843581846893 -0.0405543840292412
-0.0156397911130504 0.0193387816232413 0.00815156545981238 -0.00544192570321403
-0.00585565778948472 -0.00981722716279093 0.00611453865530537 0.0153626846635511
0.00234144511529647 0.00138924366307983 -0.0244716060420281 -0.00307740433223179
0.0150155443690706 -0.00523603328389612 -0.0012092084869371 0.0134048180897263
0.0170511153452205 0.00109617455674137 -0.0120207131110502 -0.00816514174195483
0.00792800959446007 0.0181622150909956 -4.83589276770356e-05 -0.0288853850769986
0.0213521369273912 0.0190050859669923 -0.00142463332930623 -0.00970844436263368
-0.0300202331890155 0.0053309220726009 -0.00232528859406613 0.00386051793762143
-0.00823693297421877 0.0127367990491694 -0.0105918505014003 -0.0116755867533335
0.00928719236202437 0.010567663149443 0.00340131973191588 0.0273863860468639
0.000551343894117172 0.00747169932505553 0.0275081911014529 -0.00743476538920588
-0.00560163092137113 -0.0169068280893835 0.000929631285297453 -0.0213447521363765
0.0282463152114884 -0.00382238062544641 -0.00457220654636676 -0.0208232612700336
0.00194450346170059 -0.000425750761330091 -0.00297579551558026 0.00475112261574596
-0.0255123378067114 -0.0027651548680011 0.0255046755088392 -0.0157920305204474
0.0368605245412321 -0.0146567594413478 -0.00976924735671507 -0.0148141632491921
-0.0336842412082861 0.00903599814729223 -0.038901692538552 -0.00202083997210434
-0.0237045781980319 0.00824660225513965 0.0014459179945253 0.00764476265680159
-0.00314436587836809 0.0454121237644321 -0.00814942233594527 -0.0271293770476843
0.0188786154569388 0.0133581098747055 -0.00467330689820256 -0.00364978218003399
0.00518953142899569 0.0104196631705481 0.014250651649565 0.00502691732580186
0.0236898682660469 -0.00304169690984567 -0.0106191664963392 -0.0202347307960198
0.00297428696131374 0.0172127319226711 -0.00394537959064171 -0.00546330488433286
-0.0326626293660101 0.056791345148387 -0.0250794427444118 0.0234111694719986
0.034121331262212 0.00783975587197325 -0.00373823705767167 -0.00289842725608258
-0.0393046706430014 0.0325289692856048 -0.00655052389316656 0.00283290227474352
0.00793608877808092 0.0135324290015791 -0.0176293118356301 0.00978654903036126
-0.0137390797496081 0.00855300628882771 -0.0137612831623133 -0.0169614482432688
0.0155657653398446 0.00627878004775472 -0.00784097870831294 -0.0332007724924763
-0.0323175322270116 0.0405184867278997 -0.00118988106829409 0.0191011748239623
-0.0380688963926834 0.0247222644047874 0.0319348948876482 0.0097247019926969
-0.00422189647517742 -0.0224630754397433 0.026873130523939 -0.00554484661283607
0.0263166492604961 -0.000395813740362343 -0.00258612173976429 -0.00356189330675393
0.00953403438123274 0.0129728089718522 -0.0431745782782963 -0.0437013596715185
-0.0124371635447885 0.0315923951405149 0.00093708681278888 0.026371092997866
0.00659144284082891 0.00657738341040013 -0.0359705405000762 0.0147844479274857
-0.0367699879748589 0.0086431290285255 0.0209922576944357 -0.0290433313610788
-0.0354410172929544 0.0146742957755888 0.00205907932672223 -0.000899072690772256
0.0196435745568121 0.0580546013249335 -0.0320585264313018 -0.0240686100461644
-0.0016964943152123 -0.00672791153970748 0.0182128637519349 -0.00429183639839638
0.00487423579075447 0.0384212355910783 -0.0172020896622627 0.000514075285353528
-0.0295136060521098 -0.0143986047459265 0.0388919645703257 -0.0217089431632375
0.0156720064538608 0.0135106023117333 0.00703312712920404 -0.00753128781868242
-0.035519997101754 0.0271449818067388 0.0166533224802124 0.00685797473307476
0.000412177616962779 0.0546364516656804 0.00987360471622332 0.00630025169471845
-0.0159054892631109 -0.00995417200384126 0.00130022774485172 -0.000731188127678291
-0.00038146234967234 0.00313798704076049 -0.0010258862845266 0.0152276070013423
-0.0251315210243605 -0.0274855365204761 0.0130811372013349 -0.0155755204394737
-0.0466044238873577 -0.00842762926962333 0.0585162859512073 -0.0238028345897769
0.00654884597866631 0.0175797008357909 0.00180184275478232 -0.0182695893601189
-0.0396928309580138 0.0109329150938161 0.0249490417653711 0.00630341068292392
0.0304361717871429 0.0114032385597879 -0.00644925339793398 -0.0131158070357411
0.0212894477612608 -0.0114877250396113 0.00658799337896605 0.00968600962456863
-0.0141620920160826 0.021081107300378 0.0183470420124141 -0.026004553419896
-0.0127796203611105 -0.0313912591339953 -0.0359247321086559 0.00192190120286803
-0.0035883224762834 -0.00346125220448648 -0.0159906366565133 0.0133061656004516
0.00143907231947428 0.00566998396096117 -0.0237490076576913 -0.0327255357038822
0.00981327987208966 -0.0142638245891694 -0.0418589214607229 0.0193321975422422
0.0318284944517319 0.00290257094186109 -0.00101336169349321 0.03735803741554
0.00752634318301354 0.023765608972269 0.0111824271370796 0.0437621126808669
0.0354778602683351 -0.00779675598733931 0.0300757241879694 0.00593484443188472
0.005143203535379 0.018899317990242 0.0321863939234768 0.00534555383399907
-0.0329341528875028 -0.0028644182315363 -0.00302447407085381 0.0156953408109987
0.0100316440324502 0.00150780262347166 0.00103191815651171 -0.00823584140798182
0.0113935944703418 0.0279399103262494 -0.0333225119907697 -0.029636667648242
0.0136089820882539 0.0073198531109508 -0.0158467737293447 0.0437299249464086
-0.0315716588012277 0.0347761829016936 0.0195534327269017 0.0194509179781584
-0.0433588543135456 0.0305547003183021 -0.00672811681594261 -0.00888922375114416
-0.0255855116949385 -0.0150088172473405 0.0146681992877942 0.0111654730478233
-0.0210049126922327 -0.015030416500936 0.0116217696755826 -0.00826092553714231
0.00361188983446945 -0.0137000463725732 0.0127256355634173 0.00934174985197708
-0.0422742177164733 -0.0190284210341121 -0.0227682232333875 0.0026917862475489
-0.0148805568185395 0.0372859025845781 -0.0131816400859547 0.0397216127801084
-0.0395581569922086 0.0141964820582558 -0.00451280296376849 -0.0144981201224148
-0.028214769386831 0.0219338321918471 0.00773607897572415 -0.000582669100435895
-0.0261671688766108 0.0104241364150955 -0.0243012056582953 -0.00354354340841874
0.0300451402410005 0.00757113183043922 0.0352152003017428 -0.00107734660557699
-0.0174766475541536 0.00835923327255173 -0.00313265384409296 -0.0221076822280035
-0.0103452538833878 0.0206205241490106 -0.00526329566770556 0.0353091908829124
-0.0378225684742425 -0.0115885944352082 0.00403084552303929 -0.00473738648191796
0.00662274037341882 0.0107933412254005 -0.00266630523987338 0.0209890237117935
-0.0340336076898331 -0.0033846734797118 0.0287944388694775 0.0228671574207105
-0.0114358876958849 0.0140948284765494 -0.012421148910496 -0.00206778816372612
-0.0223436207772617 0.00425890610253555 0.0257743953461495 -0.0121545372716537
-0.00870139390488769 0.0165732519919391 -0.0156111452382683 0.00188392755535432
-0.0173458777135874 0.0195574466632849 -0.00431597910918106 -0.0224569878767381
-0.0548948711053951 -0.00986134323884343 -0.000189710616806079 0.0246681731479625
-0.047782353957109 -0.00365932096098662 -0.0175255882071323 0.00728797950028066
-0.0381665676438424 0.0217248810533156 0.00893841232416748 0.00796346762164643
-0.00159544107234842 -0.0141701545167663 -0.00434836735593189 0.0117787248561493
0.00958129569693911 -0.0221521699259293 -0.0239478603032353 0.0146747693901859
0.0235845181248231 0.00836189444521996 -0.00768764901276745 -0.0185728129864412
-0.0328900190048894 0.010426785159379 -0.0259272935427927 -0.0381075187823676
0.0289048722759372 -0.00825601539731754 0.0309147679518399 -9.31861993652677e-06
0.00204467628399755 0.00998446247123114 -0.0128064437419862 -0.0135201998335531
0.0175702382092992 0.0461328131481188 -0.00106914292510165 0.00602526143509467
0.000472610829503036 -0.00130360304222063 0.0403842601573669 -0.024087205005045
0.0146332008335058 0.0148525239213491 -0.0276771228904991 0.0135861261441615
0.0192133892388491 0.0354052140249694 -0.00719577796936321 0.00123537117873579
0.0306352133668212 0.00876742101572308 0.0167075390619487 -0.00294068502406301
0.0208292580454239 -0.0142577328278149 -0.0437890940407995 -0.00162569149052221
-0.0419342401787866 0.00521061498082428 -0.0160543904119068 -0.0184846862929627
-0.0539613738585612 0.0263288854359155 -0.0097570161570897 0.00872342438796852
-0.0245028886416138 -0.0321996445430106 -0.0121058393468731 -0.012650000494649
-0.0205487651563127 -0.0320533161669323 -0.00296583532037223 0.0396274057238641
-0.00739831108522772 -0.00742471683707283 0.0148069003632319 0.00980671828005294
-0.0122645865835645 0.024810288687562 -0.0200551988979483 -0.0175723698418982
-0.0141601028102439 0.0146717320327819 0.00818109941958402 -0.0122256845250888
0.000401219647152537 -0.0131825194853301 0.0283944167437053 -0.0105373315270847
0.00233621868953165 -0.0172839258148371 -0.0151992482625932 0.0445511499834353
0.00818676568342021 -0.0167840757086763 -0.0360694324941744 -0.00769716754407207
0.0117183623179563 0.0123953504741775 -0.0172653192694031 -0.0159495166342728
-0.053516774601567 0.0154367473194008 0.00585621416895889 -0.0229012110072583
0.00676896250489538 -0.00360332278087568 0.0094104108125215 -0.0295100202383504
-0.0160117325740831 0.00618985538732401 0.0228162404386433 0.00203361535856128
-0.00859248317050036 0.00720364384848247 0.059208884842671 0.0156888696637101
-0.0112854402701881 -0.0033359392929996 -0.0217517007479212 0.000788554753319941
-0.00181842366115684 -0.0218098571337138 0.0160760677712719 -0.00427818004364475
0.0168595344305295 -0.00954397187434509 -0.0158795441000551 -0.0243390652375159
-0.0309773109184385 -0.0259625817148034 -0.011679650058363 0.012240015658514
0.021885387585284 -0.0128052569609393 0.000566997056119917 0.0224997733289257
0.00301307904885722 0.0479910851460818 0.0161017637585462 0.00354269008960375
